164 100
21 -0.029857494 0.27847493 0.06037488 -0.3074169 -0.24190721 0.2974629 0.09061167 -0.145349 -0.23620622 0.1629473 -0.61240214 0.13300005 -0.44690156 0.1282287 -0.06895459 0.15111195 0.05967768 0.29380423 -0.24425204 0.108553864 -0.28237075 0.06486502 0.4191511 -0.25672245 -0.20168588 0.015748737 -0.11867675 0.28669852 -0.007800577 0.004330074 -0.06371654 -0.26077038 -0.20967244 -0.12958305 -0.14935192 -0.29829583 0.0089100255 0.0067920247 0.040497523 -0.18327738 0.11835932 0.2756139 0.35461435 0.10522284 -0.1723189 -0.032209776 0.019878944 0.06999573 -0.006659459 -0.07143472 0.020898273 0.21107046 0.25009677 0.120685205 0.19347464 0.21883217 0.041362498 -0.43623793 -0.02040235 0.12137441 0.12901945 -0.18219243 0.33490384 0.50628275 -0.054783564 -0.27085543 0.07058034 0.09421531 0.11380814 -0.009568558 0.049442198 0.07622795 -0.14182246 0.012155915 0.011427588 -0.17064337 0.4331249 0.099756435 0.4020142 0.018399388 0.10058033 -0.24801333 -0.14532891 0.09332195 0.19698691 0.07206453 -0.3755967 0.10582713 -0.17783844 0.09165856 -0.006241455 0.01046396 0.11371706 0.23525885 0.29238227 0.2016655 -0.03843739 0.24832527 0.09233549 -0.12052496
24 0.0792081 0.20974754 0.044080403 -0.13244246 -0.0800414 0.20635271 0.20682867 0.0850606 -0.26431438 -0.05907988 -0.46244192 0.29432312 -0.33502212 0.25256205 -0.17062244 0.04392016 0.036248244 0.011374247 -0.30343002 0.43692744 -0.011855038 0.23227702 0.6134549 -0.28551623 -0.13126372 0.008207555 0.025229983 0.07640998 0.23783642 0.16446985 0.1381032 -0.32864386 -0.36741474 -0.29706126 -0.16694395 -0.5635849 0.13528673 -0.09371512 -0.038366914 -0.23028177 0.030988522 0.29442313 0.4652715 0.022498462 0.18594414 0.056103885 -0.031002764 -0.04352905 -0.036497954 0.16074456 0.10698049 0.17342213 0.10728718 0.3959076 0.0106318835 0.011451201 0.411416 -0.25635692 0.060408086 0.06665969 -0.036907792 0.1156049 0.1785497 0.2388842 -0.08937865 -0.28877428 0.11396153 -0.059854645 -0.24547999 -0.009808519 -0.20185041 0.019265942 -0.0786191 0.076025374 0.013128474 -0.11491963 -0.038138643 0.18224086 0.3011079 -0.09072186 -0.09550955 -0.30214167 -0.16596659 0.025645364 0.17137204 0.105003744 -0.1879966 -0.18066631 -0.11795257 -0.21965623 -0.14751804 0.014112599 0.12524052 0.036182854 0.100656316 0.20050946 -0.07028228 0.03652378 -0.2183847 -0.027586818
3 -0.07943694 0.15123793 0.17976941 -0.4671859 -0.21002093 0.1357373 0.23881492 -0.18853457 -0.07249357 0.3537883 -0.33078587 0.018243771 -0.5689003 0.09954038 0.107318595 0.09223673 0.03497788 -0.012387115 -0.08996874 0.21253024 -0.46518588 0.2578376 0.12289154 -0.35367057 0.01357151 0.18594427 -0.06692984 -0.12992047 0.019876145 -0.28235537 0.019955311 -0.13135849 0.14935419 -0.24461815 -0.030080574 -0.2791566 -0.16970766 -0.019158065 -0.08100687 -0.18010865 0.081702024 0.47865197 0.5407086 0.1943854 -0.09280766 0.013122102 -0.18762352 -0.19103532 0.07335765 -0.008224178 0.432124 0.40314373 0.23347679 0.13050671 0.15140109 0.14718147 0.19626519 -0.4501463 -0.30098823 0.048433628 0.37135252 0.05142968 0.1367609 0.50473773 0.012716365 -0.16610108 0.11748585 0.05666228 -0.027697241 -0.115640916 -0.14103034 0.20861578 -0.08335947 -0.04400359 -0.09880869 0.11283729 0.3484971 -0.0611241 0.31266627 -0.0585061 -0.021214245 -0.40811053 -0.21181522 -0.11337802 -0.049681906 0.08646373 -0.5938761 0.13896568 -0.14976497 -0.06844415 -0.18295746 -0.058238365 -0.007986763 0.03529296 0.26176134 0.15303898 0.080466665 0.14749658 0.13351563 -0.10781177
58 -0.20411405 0.51031446 -0.013866106 0.090389185 -0.01262765 -0.24734384 0.28754088 0.075524606 -0.014807852 -0.3393075 -0.2955589 -0.09168316 -0.39059556 0.13775782 0.19822979 -0.428265 -0.14242522 0.18628694 0.07721499 0.1836852 0.046501283 -0.2518883 -0.036572102 -0.12704471 -0.18134183 0.028744722 0.13301483 0.043033555 -0.15090853 -0.0013902327 -0.10618918 0.14119352 -0.15806073 -0.36445767 -0.19048488 0.23205507 0.21293855 -0.11945866 0.029484453 0.12232171 0.32152608 -0.05300084 0.061652485 0.083372615 -0.064647995 0.1658644 -0.17532702 -0.17726581 -0.42280963 0.06781656 -0.38733378 -0.054421622 -0.25564858 0.34421325 0.15952274 -0.09257307 0.17211704 0.0163663 0.14530319 0.07420233 0.030464455 -0.33716634 0.15511411 0.2559452 -0.30572522 -0.099398024 0.07529782 -0.15702854 0.07547565 0.2580307 0.22110648 0.19876699 -0.0021143656 0.22686736 0.032160185 -0.23321146 -0.082147054 0.19438997 0.47640443 -0.15594006 -0.10632469 -0.23747297 -0.3433438 -0.04638 0.003955016 -0.050933823 -0.29285744 -0.1631604 0.015896026 -0.07534007 0.11051 0.14729692 0.0055535478 -0.14296871 0.43804666 0.21356645 0.35467926 0.019429276 -0.63069266 -0.13662842
13 -0.42720744 0.198425 0.13613857 -0.4709015 -0.031067923 0.23616572 -0.037441116 -0.19592032 -0.13718538 0.21337695 -0.35658902 0.083274946 -0.53958505 0.31207708 0.003730182 -0.058350526 0.063083924 -0.23452067 -0.06313916 -0.036963444 0.029658942 0.43720984 0.102699265 -0.20280543 0.39304122 0.25026223 0.1888372 -0.038166407 0.31176925 -0.28267723 0.12316987 0.07973579 -0.39873347 -0.12657142 0.06903862 -0.25718278 -0.45283878 -0.059064597 -0.20932887 0.18503013 0.38461238 0.6492705 -0.03753803 0.57113624 -0.3587764 -0.056165818 -0.124723874 0.006066364 -0.025722116 -0.4834042 0.38116354 0.110304944 0.15187843 -0.15535894 0.32944304 0.1533057 0.15840599 -0.6014122 -0.231264 0.5413729 -0.13407502 -0.14027213 0.2586727 0.21281813 0.08298682 -0.35554236 -0.023869619 0.22559574 0.3500009 0.22008795 0.15352315 0.48848295 -0.04737502 -0.14929692 0.097628914 -0.041161526 0.4242356 -0.33928135 0.1132857 0.050006315 -0.4783512 -0.10356621 -0.21314132 -0.2736463 -0.14016415 -0.19918479 -0.3977165 -0.40072098 -0.04272529 0.08434366 -0.33975932 -0.17623486 -0.049714576 -0.24281444 -0.020648414 -0.021693466 0.269988 -0.17304647 0.18381296 -0.44808757
26 0.075911924 -0.058845643 -0.10607795 0.016792022 -0.22360878 0.21387447 0.3490564 0.12256474 -0.0036897054 0.009093975 0.014585892 0.484929 -0.33666825 -0.09531152 0.12620346 -0.095290095 -0.2543093 -0.27671486 -0.20635234 0.24051878 -0.046628427 -0.100679934 0.09835661 -0.14195435 0.09420985 0.06089052 -0.10448966 0.00792792 0.14046702 -0.018939642 -0.04927158 -0.21221462 0.017054556 0.024912013 -0.12655643 -0.090754636 0.33840546 -0.08541102 -0.049730662 0.12066337 0.24522069 0.1279385 0.21921225 -0.06008362 0.19639012 0.1529993 0.12644981 -0.035644606 0.17009968 0.15735659 0.14676805 -0.0119821085 -0.4265965 0.45854577 -0.08439234 -0.11335615 0.16296537 -0.13359126 -0.0865939 0.12722504 -0.05111608 0.283312 0.15652606 0.435632 -0.22703911 -0.15765294 0.16852257 0.13633907 -0.53259915 0.07583499 -0.0004367273 0.047863275 -0.16223814 0.009107173 -0.14888914 -0.43906727 0.2868095 0.17528749 0.315001 -0.21766679 -0.025411129 -0.073323205 0.016064784 -0.03764077 0.20535132 -0.21687591 -0.44157818 0.11304513 -0.2474796 -0.023770869 0.02100524 -0.020384628 0.14463481 -0.018834744 0.24932769 0.30000335 0.24982269 0.14958304 -0.14959314 -0.056341894
20 -0.04404398 0.3601423 -0.011474059 -0.23295571 -0.30871636 0.3310734 0.21089709 -0.15068455 -0.22996482 0.009723527 -0.27800295 0.25505406 -0.4312153 0.16693436 0.14795114 -0.08005887 0.0148917325 0.26338965 -0.25936228 0.42483306 -0.3715724 0.24297962 0.033952937 -0.36156985 -0.16191429 0.18573949 0.061768793 -0.0030419126 0.051804744 -0.14526667 -0.012202142 -0.13654864 0.026190624 -0.15762793 0.0674239 -0.38516933 -0.25049207 0.07506648 -0.03741782 -0.23185682 0.09013786 0.32981232 0.38910678 0.046669286 -0.05637022 -0.2146023 -0.22127791 0.0561742 0.06722821 -0.10992608 0.2461915 0.240148 0.16303357 0.052096583 0.093674265 0.14227135 0.16774626 -0.47041363 -0.4188063 0.043622535 0.1301368 -0.027624482 0.3481803 0.39326063 -0.018527588 -0.30569613 0.052745916 0.32008308 -0.26286665 -0.0055014743 -0.04228313 0.19121704 -0.12566525 -0.05732144 -0.12425284 0.008695056 0.2996328 -0.048534315 0.38638178 -0.14846933 0.057891138 -0.35403204 0.0021637515 0.10591615 0.074525 -0.065697 -0.2021689 0.08808182 0.09859563 -0.057016958 -0.029323598 0.17023796 0.06686032 0.099387884 0.35310352 0.15657936 -0.116918325 0.2555444 -0.026169796 -0.22376694
17 -0.13069575 -0.05661771 0.26306212 -0.37864572 -0.13576365 0.10077003 0.07646251 -0.115336485 -0.14133492 0.34814894 -0.35401547 0.26482084 -0.4083334 0.20224495 -0.09287357 -0.025993083 0.0927149 -0.039985016 -0.19297275 0.02313332 -0.1382848 0.29344127 0.12645668 -0.28116128 0.16552836 0.19259246 -0.02943948 0.06546281 0.22539069 -0.5051897 0.04547416 -0.1677799 -0.12541795 -0.054845713 0.11724336 -0.4022926 -0.19709416 -0.058858756 -0.36705318 -0.112057745 0.3666165 0.6159879 0.13457726 0.5467218 -0.04318882 0.033945344 -0.12292393 -0.16715834 0.2615133 -0.22198181 0.43089762 0.26250833 0.19721375 -0.048851162 0.19740866 -0.010582206 0.28796193 -0.36772808 -0.3284405 0.03838084 0.065110095 -0.24712278 0.23133244 0.10015 -0.0711688 -0.4475347 0.20589584 0.08315001 0.16772002 0.13457398 0.04328891 0.2653193 0.06507687 -0.024258444 -0.17584927 -0.008010284 0.3186655 -0.13047656 0.21451047 0.11672876 0.09499157 -0.27237213 0.071737766 -0.09684623 -0.07403201 0.025344193 -0.49776056 0.09293944 -0.019463962 0.018285764 -0.22835612 0.13351564 -0.016211951 0.0679507 0.087351546 0.31507587 0.20182607 0.111469656 0.13379687 -0.12851276
94 -0.05683982 0.2865726 0.055818766 0.040824357 -0.10741106 0.010256821 0.2752076 -0.14508636 -0.16474056 -0.04706613 -0.18034452 0.1527862 -0.36790457 0.044336572 -0.011264632 -0.13194388 0.011095446 -0.0034089948 -0.13603896 0.33088055 -0.11588696 -0.1368823 0.07506587 -0.17382154 -0.07583445 -0.17955814 0.12605584 -0.014372619 -0.038502414 -0.14043398 -0.0651038 -0.18470839 -0.1034515 -0.17729855 -0.33842173 -0.21438944 0.3985261 0.027570788 -0.12771732 -0.0024551998 -0.06499105 -0.21788262 0.2541392 -0.013231123 0.06722394 0.19092721 -0.017230999 0.015445585 0.12371304 0.26661924 0.07712282 0.13697322 -0.069769025 0.24521925 0.029078644 0.06692514 0.011021813 -0.16628018 0.10375197 0.0054113055 0.093993984 -0.07078723 0.33041605 0.35801828 -0.20550837 -0.182498 0.14801237 -0.21908747 -0.14084339 -0.086421855 -0.09770597 0.1224958 -0.15291062 0.06530615 0.002378467 -0.121839695 0.05795221 0.14340365 0.26544824 0.010374185 0.20264506 -0.15934728 -0.11901987 0.079546295 0.069266774 -0.014888672 -0.33607572 -0.033016212 -0.24001741 -0.023525687 0.18342814 -0.032030746 0.1447898 -0.003455659 0.46926993 0.26416442 0.14363591 0.16543607 -0.23508134 0.018239085
95 0.038205642 0.39164227 0.12892117 0.36242774 -0.091563314 0.09566444 0.3042333 -0.14161862 -0.102307156 -0.24504624 -0.10527744 0.15113443 -0.21110141 0.19888867 0.19158725 -0.23028803 -0.039765153 0.09354031 0.081203446 0.2090333 0.20797132 -0.35919783 -0.15174222 -0.021343322 -0.04585214 -0.11365539 0.23267314 -0.081958316 -0.2191869 0.07458565 -0.034982666 0.10506266 -0.15747042 -0.1774337 -0.19255069 -0.11227548 0.39129212 0.047201224 -0.0018334467 -0.056463085 0.025542356 -0.1469406 0.15668581 0.020586146 -0.108836316 0.20935725 0.11911439 -0.17528369 -0.0939404 0.1766445 0.08672247 0.20953925 0.019868039 0.4526022 0.18695897 -0.05348637 0.22601594 -0.07835937 0.11601326 -9.690839e-05 -0.03404273 -0.28490865 0.23931174 0.39601007 -0.23421872 -0.07143986 0.09562278 -0.16386782 -0.060984522 -0.12925732 0.4146231 0.29987648 -0.1697417 0.21925941 -0.03996484 -0.09589152 0.05769238 0.16355196 0.3673494 -0.0036473868 0.020537253 -0.15755364 -0.14194244 -0.2598491 0.25035116 -0.06375236 -0.3571547 -0.09156187 -0.30612803 -0.14272569 0.048834074 0.027854832 0.30579802 0.207955 0.46696773 0.33233416 0.13139506 0.015049122 -0.3326411 -0.0013600067
11 -0.3970688 -0.015723484 0.08630915 -0.46108162 -0.021247534 0.30417466 0.053415395 -0.290968 -0.3280365 0.16613072 -0.5368712 0.11354015 -0.40536532 0.20665312 -0.05960622 0.035061955 0.14876014 -0.25627887 -0.321708 0.1320371 -0.01148023 0.5999856 -0.024463447 -0.13552184 0.17483541 0.20482059 0.10820131 -0.078223705 0.12280119 -0.41586414 0.10071482 -0.14427257 -0.16174656 0.12487022 -0.0063213063 -0.20249091 -0.27845082 0.08159534 -0.2954221 0.10349967 0.08710137 0.5833213 0.17758666 0.50708437 -0.24258845 -0.05849474 0.17670855 -0.012871571 0.051002633 -0.090056546 0.38194868 0.05849652 0.30192158 -0.113520086 0.2704078 0.012719709 0.16648291 -0.39651465 -0.32238302 0.14743134 -0.11793551 -0.25548318 0.18850401 -0.0156217115 0.19745515 -0.52084273 0.15643916 0.06667088 0.38227785 0.21886094 0.107828684 0.43933815 0.09033275 -0.12617055 0.075730175 -0.11325915 0.37787113 -0.20138703 0.08240262 0.002821965 -0.3967238 -0.30864975 -0.19788934 -0.046282172 -0.19915669 -0.09319949 -0.3180947 -0.014650456 0.1504577 -0.06814747 -0.22615108 -0.047760494 0.021719974 -0.034379717 0.004383053 0.12130586 0.23950154 -0.10226908 -0.1122873 -0.4890715
4 -0.046622843 0.14527705 -0.12911437 -0.28839314 -0.33186722 0.10830842 -0.049590733 -0.19308412 -0.027734488 0.25713098 -0.30830207 0.007413641 -0.47624183 0.18705499 0.086535946 0.015034678 0.11544599 0.267619 -0.35579586 0.087735236 -0.2547263 0.23135987 0.17935914 -0.2057426 -0.006197465 0.08254486 -0.12755854 -0.0008698898 0.16963193 -0.2810385 -0.006821633 -0.20999375 -0.19483627 -0.036353685 0.0095096305 -0.42721623 -0.17000923 0.14163914 -0.15855215 -0.06610191 -0.0036650682 0.40230018 0.45840147 0.30096123 -0.14662984 -0.0767295 -0.050314385 -0.013350149 0.111704625 -0.10741462 0.44095555 0.13775176 0.26050574 0.24870436 0.07265949 0.14281386 0.1702783 -0.3132606 -0.14205238 0.050794482 0.10554622 -0.20853259 0.2980295 0.34621686 0.07766522 -0.2880613 0.077741705 0.1279036 0.01967838 -0.036856435 0.13148963 0.20329615 -0.19972672 0.14485924 0.061184496 -0.20534281 0.3902293 -0.1745442 0.36292234 -0.0014189117 0.10828027 -0.2591116 0.11545832 -0.014758834 0.10880027 -0.09341635 -0.2641739 -0.0030587248 -0.1102505 0.0031582862 -0.04782411 0.10395836 0.120403014 -0.018244306 0.1834276 0.27430898 -0.01772533 0.21645972 0.07396009 -0.17452368
22 0.021014845 0.31581885 -0.00041116256 -0.3593678 -0.33579615 0.19398311 0.14033289 0.12716754 -0.261564 -0.02846027 -0.28379518 0.26625806 -0.37187797 0.23333018 -0.25204104 -0.0027135147 0.085045926 0.2630619 -0.36099514 0.65784186 -0.24438563 0.12273396 0.40731502 -0.24631768 -0.2783419 -0.0031505942 0.11414303 0.120957814 -0.006595468 -0.046440788 0.018737191 -0.30521494 -0.11657361 -0.118577234 -0.23913531 -0.3557548 0.08335903 -0.124624215 0.025138725 -0.26320198 0.19317129 0.12265046 0.46777442 0.14464918 -0.16546804 -0.19536048 -0.21736582 0.044964794 0.10493461 -0.23865885 0.10558793 0.11240224 0.26532555 0.36526382 0.15314323 0.07765113 0.31188357 -0.5041936 -0.16416468 0.10365765 0.14368063 -0.006641652 0.40824008 0.33951 -0.09260009 -0.40074953 0.23134506 0.079703644 -0.07530315 0.14714487 -0.098503046 0.133054 0.017420743 0.0064166817 -0.0972365 -0.035852745 0.29522607 0.22448425 0.41813162 0.0875972 0.032332394 -0.23524569 -0.10691601 0.11588779 0.124292806 -0.06980954 -0.06581385 -0.15081729 0.03752946 -0.116542704 -0.09603783 0.027457943 -0.04181253 0.21841817 0.17596628 0.19484602 -0.28713298 0.19581415 0.08896594 -0.17264001
72 -0.38268137 0.22813834 -0.010724641 -0.37657124 0.020543275 0.05114309 -0.12713934 0.10881534 -0.057864793 0.3085286 -0.1856981 -0.010020728 -0.72975135 0.27211618 -0.058205146 -0.12547734 0.072788835 -0.22489785 0.0589836 -0.11735141 -0.010813428 0.52772564 -0.21906824 0.042682804 0.57013744 0.4348117 -0.04623791 0.110159636 0.36057448 -0.3270907 -0.02442171 0.19559763 -0.23052667 0.0998274 -0.003017408 -0.12739651 -0.26260564 0.0035036101 -0.2439899 0.21338207 0.38890886 0.47034883 0.0917513 0.5992848 -0.28460225 0.07390483 -0.095942 -0.10437824 0.09269219 -0.43766072 0.06845314 -0.11103016 0.21350117 -0.27916336 0.26456013 0.19867443 -0.17830856 -0.72092855 0.01355432 0.3906663 -0.14222236 -0.33869871 0.12463882 0.16772264 -0.13696548 -0.35269582 -0.013824167 0.100678645 0.36416882 0.47202736 0.2525389 0.4658403 0.15852359 -0.27942556 0.10989824 -0.12230752 0.3004094 -0.3859025 0.10864497 0.017458057 -0.35610858 0.05773361 -0.21616957 -0.25049928 -0.24826612 -0.20240316 -0.43689656 -0.44188982 0.14118116 -0.002433363 -0.47690818 -0.21657646 -0.09792923 -0.3568667 0.19685133 -0.050438616 0.45394012 -0.062911525 -0.09253879 -0.35144362
93 0.2526647 0.36285964 0.21479568 0.4679153 -0.131187 -0.16301596 0.3556247 0.009715677 -0.028473083 -0.18197158 0.00066726306 0.19431826 -0.18597274 -0.10299201 0.13487153 -0.13517533 -0.09552615 0.09879579 0.21606463 0.22306006 0.04102032 -0.120924704 0.012013414 -0.1426568 -0.11951685 0.06521583 0.13969874 -0.03416051 -0.024100054 0.120976724 -0.18560705 0.06740813 -0.23207718 -0.16895199 -0.21097371 -0.26716742 0.08355888 -0.16048159 0.061978176 0.0077372314 0.04231976 -0.14996204 0.31018326 -0.07118772 -0.022516767 0.0931225 -0.20515704 -0.024056254 0.030134855 0.31794092 -0.13872162 0.099960506 -0.1878496 0.39285424 0.18777986 -0.060785834 0.20452996 -0.35462692 0.09818138 0.20578371 0.06387896 -0.09641679 0.33494294 0.33734715 -0.27628645 -0.07449624 0.021600738 -0.2097591 -0.03724788 0.16037062 0.41074485 0.38026345 -0.11518625 0.1768084 -0.09081448 -0.22084844 0.03418707 0.20921174 0.20700885 -0.20690756 -0.009445931 -0.032021854 -0.1127166 -0.059633877 0.069092266 -0.039812673 -0.27159768 0.044305526 -0.37115037 -0.14450102 0.1138983 0.05811363 0.06913305 0.0104559595 0.50868607 0.34170645 0.18477395 0.052334648 -0.17041257 0.07315773
98 0.32093346 0.2681936 0.37474516 0.045912758 -0.21542351 -0.044447545 0.5257214 0.10852883 -0.024228444 -0.21817596 -0.03129292 0.30828398 -0.5433757 0.22655757 -0.008007558 -0.23782964 -0.047988765 -0.1443894 0.0715252 0.2609031 -0.026710328 0.059080504 -0.057546493 -0.17564198 -0.08647994 -0.06925715 -0.03742731 0.15913883 0.10245837 -0.10193403 0.10306964 -0.13452275 -0.28788486 -0.11223808 -0.22312054 -0.44142824 0.15471566 0.12776667 -0.022024518 0.0046273023 -0.026603451 -0.08064757 0.25905225 0.038070902 0.14260517 0.07555234 -0.09558829 0.0052290712 0.058445543 0.3368323 0.091945805 0.070636354 -0.29248542 0.40469825 0.026695278 0.007709207 -0.037425887 -0.14278556 0.13746431 -0.03418165 0.0340002 -0.10091503 0.24642815 0.25206104 -0.35735783 -0.23782437 0.102683865 -0.09988032 -0.44157153 -0.046073817 0.10079518 0.17289668 -0.11319506 0.23438184 -0.12442372 -0.3996567 0.13609488 0.24473457 0.34061718 -0.08363525 0.015823867 -0.1413197 0.007319554 -0.067381166 -0.017875457 -0.10513907 -0.027213784 0.039472565 -0.24607393 -0.1702496 0.09675271 -0.023508757 -0.04632021 0.027522646 0.22288853 0.26213035 0.19076058 0.08501356 -0.28060523 0.07650484
126 0.105561145 0.052254904 -0.12536277 0.35806116 0.07933821 0.2058352 0.14939348 0.14293312 0.047244146 -0.08819771 0.196621 0.45693594 -0.23558733 -0.20285414 0.10554882 -0.11781436 -0.2801748 -0.087267786 -0.20821609 0.23101665 0.14203314 0.10350406 -0.01578082 0.111031264 0.10571765 0.08535239 -0.105648205 -0.16727303 0.36118704 0.1194609 -0.25743365 0.042897668 0.08520999 -0.14994963 -0.42517594 0.16573392 0.20575072 -0.28311482 0.012847598 -0.16278556 0.4027428 -0.03522076 0.19340195 -0.16842787 0.059134673 0.010990528 0.12961113 -0.10742238 0.13156518 0.2032651 0.009040042 -0.023299841 -0.13410972 0.5076366 0.08755471 0.108071744 0.30386475 -0.19152251 0.13476118 -0.018496066 0.047013603 0.117886454 0.30333063 0.41157597 -0.35841265 -0.12770697 0.053486295 -0.08999185 -0.23669317 0.1044958 0.2520084 0.18873453 0.010930119 -0.110676184 0.23982279 -0.41375908 0.1991354 0.16115929 0.3074926 -0.065664634 -0.36403957 -0.0669565 0.060686514 -0.19587247 -0.1819135 -0.23630063 -0.41011313 0.023905367 -0.3100024 0.058584042 0.06295972 -0.06651917 0.13430223 0.048401143 0.2816652 0.13811596 0.15947905 -0.042685717 -0.13970639 -0.07945173
5 0.026078101 0.13903022 0.17902465 -0.25014484 -0.2709552 0.121809915 0.25110888 -0.090446874 -0.14945042 0.37260512 -0.37217703 0.16280672 -0.39153305 0.060321894 -0.059657723 0.023779852 0.005831917 0.13329896 0.08150186 0.26130965 -0.3968746 0.23510881 0.15720223 -0.11711266 -0.07838593 0.046036948 -0.053669635 0.014306691 0.19512978 -0.12919253 0.11236066 -0.19525927 -0.15608278 0.09716611 0.0206705 -0.35977826 -0.06874318 -0.02066523 -0.13164186 -0.112457246 -0.19023174 0.30898008 0.37869704 0.14973468 -0.13925731 -0.08354761 -0.034812372 -0.32157543 0.13847962 -0.47292957 0.3377775 0.24910079 0.28674823 0.113642156 -0.047812913 0.20670316 0.23194906 -0.29465532 -0.26769128 0.13669851 0.2044202 -0.20063864 0.19991843 0.35986266 0.15658711 -0.3616218 0.3496211 0.054353494 -0.14930949 0.13139181 -0.09594386 0.062261857 0.018725729 -0.121356696 -0.069788925 -0.08749637 0.57900715 -0.12202711 0.37773418 -0.20405824 -0.07069818 -0.15956764 -0.018087598 -0.22231752 0.09441872 -0.070345916 -0.46886998 0.009805529 -0.075497925 -0.06767864 -0.24654117 0.0679807 0.1045486 0.10723697 -0.018302418 0.24949259 0.22111647 0.41999686 -0.13147183 -0.31321967
44 -0.26971483 0.5314445 0.14579749 0.1931777 -0.09063377 -0.1065412 0.31304556 0.025514362 -0.3203307 -0.32501176 -0.40763086 -0.059109516 -0.4548283 0.13551664 0.36658385 -0.26248226 0.061088007 0.012856292 0.19691148 0.14378755 0.20878217 -0.46004474 0.050115537 -0.040601306 -0.03271254 0.19729929 0.15472633 -0.030147223 -0.17641598 -0.1103732 -0.14105903 0.17319028 -0.15204473 -0.123333 -0.24580018 0.059778143 0.2282901 -0.031667948 -0.020020204 0.25773695 0.28118938 -0.031913 0.07972947 0.15732004 -0.07614774 0.08865056 -0.124825835 -0.10546365 -0.14001666 0.23034433 -0.074951574 0.10043695 -0.0012650237 0.28960901 -0.07531151 -0.048374124 0.20358232 -0.11477684 0.0092272805 0.110838346 0.065262474 -0.26753289 0.0657545 0.4347706 -0.23001939 0.07342933 0.2957723 -0.21198536 -0.14606428 -0.12097931 0.11081012 0.06723834 0.035289135 0.30542237 0.05037314 -0.22496544 -0.30187553 0.07057774 0.31458494 -0.20808727 -0.08647318 -0.079676405 -0.3187031 -0.0492466 0.07543085 -0.09321146 -0.0901195 -0.108856104 -0.17733267 -0.006247197 0.087910786 0.08649803 0.2278679 -0.14943063 0.44365323 0.39823753 0.22995348 0.08596272 -0.47519207 -0.12102004
6 -0.016499674 0.14705049 -0.25374776 -0.24478023 -0.28326377 0.22680447 0.2442871 -0.21160711 -0.0412504 0.046017393 -0.21486628 0.067474626 -0.32114682 0.00029870792 0.06993717 0.18060058 0.16470942 0.12466651 -0.17017724 0.1913695 -0.3483886 0.19277664 -0.043125007 -0.06071515 0.046505485 -0.02815791 -0.2317982 -0.09746721 0.2846562 -0.22224429 0.07650983 -0.29379597 -0.17664427 -0.10065442 0.18309441 -0.42498428 -0.10522169 -0.10008271 -0.24981117 0.027158834 0.0009289367 0.41272396 0.24461338 0.2761023 -0.04518704 -0.05302451 0.0032415797 -0.020773502 -0.11417727 -0.20487046 0.25026363 0.21516503 0.116480455 0.15711914 0.029104369 0.12924112 0.19946742 -0.18159012 -0.21567966 0.18618597 0.2573439 -0.09554901 0.4127595 0.5344763 0.16187128 -0.33267745 0.27512723 0.122438855 -0.25011006 0.11081404 0.0706269 0.19398679 -0.36616266 -0.12188626 0.0945861 -0.13699123 0.6487419 -0.019266553 0.23549943 -0.108347535 0.13978095 -0.1771517 0.110455364 0.018656848 0.23584694 -0.16764683 -0.38434142 0.011878808 0.010464546 0.038022034 -0.010763065 -0.039797094 0.21916415 -0.05429776 0.3992076 0.35379425 0.08162244 0.36024505 0.15519136 -0.0999234
50 -0.094690405 0.045046058 0.15881974 -0.31080568 -0.15524645 0.17185408 -0.09098378 -0.2645808 -0.06340417 0.36050838 -0.3675028 -0.08846645 -0.32311344 0.25579348 0.06639953 -0.097325526 0.048586745 0.1048859 -0.13636164 0.050415296 -0.27949566 0.13990141 0.34631187 -0.23718911 -0.027030952 0.109179616 -0.06973202 -0.010950084 0.10964053 -0.102891125 0.048231754 -0.2626548 -0.23228297 -0.10905011 -0.0733073 -0.17895961 0.16478191 -0.041781396 0.06172346 -0.18080059 0.06754141 0.5917623 0.38493186 0.07345848 -0.06717552 0.09141253 -0.06146925 0.03840941 0.30157995 -0.02522404 0.3513831 0.37938768 0.3834032 0.32398945 0.2337505 0.2535229 0.22010474 -0.6861371 -0.24373657 -0.13350491 0.114313744 0.034998987 0.38496315 0.29913613 -0.08141066 -0.5824384 0.14107238 0.22459596 -0.044150304 0.15579562 -0.029578455 0.2722752 0.104091875 0.043233328 -0.23080957 0.07252989 0.4602118 0.08603884 0.18560518 0.06508356 0.26158667 -0.36805826 0.068504 -0.033641662 0.12635581 0.04139577 -0.27890402 0.09002126 -0.065032616 0.18370019 -0.33823305 -0.065975845 0.14937505 0.0675604 0.24915363 0.23032306 0.0947651 0.029036885 0.020568999 -0.10920548
23 0.116258025 0.3256695 0.17049325 -0.40276477 -0.114510074 0.258646 0.09763648 -0.16407883 -0.1647865 0.2989526 -0.23092641 0.16448385 -0.38147035 0.43186048 -0.23566908 -0.22128831 0.06358181 0.18040086 -0.25826615 0.31958362 -0.19307831 0.0018120515 0.43371454 -0.23905076 -0.10533979 0.092086926 0.06699078 0.09943571 0.1145335 0.03383331 0.14424977 -0.32076 -0.09799661 -0.13943169 -0.19309211 -0.1698659 -0.015914062 -0.21534957 0.041684173 -0.15485334 0.15679532 0.07063524 0.6143015 -0.12038446 -0.13815376 0.047684714 -0.044766564 0.015388394 0.15766913 -0.063385405 0.063813984 0.32781756 0.39678425 0.4642643 0.13765517 0.2988494 0.28689808 -0.5017597 -0.07845899 0.027668245 0.06637709 -0.032878015 0.4312325 0.30983114 -0.27683312 -0.37850514 0.22208855 0.11160143 -0.16484207 0.02219394 -0.09539295 0.022616547 -0.032549035 0.038167626 -0.14902878 -0.14488101 0.4284933 -0.06378083 0.17518702 0.071777456 0.06745483 -0.31472918 0.038710352 0.09559093 0.07758825 -0.15211505 -0.21914263 -0.038157105 0.03449719 -0.043398023 -0.028392794 0.1393038 0.083716266 0.1238147 0.12733439 0.14177634 -0.23652187 0.014108658 0.05831868 -0.104005516
37 -0.17033233 0.105025336 -0.020364694 0.2756169 0.18823245 0.010108591 0.20586903 0.24695925 -0.17392789 -0.20039383 -0.08211507 0.13853379 -0.13158037 0.036219638 0.26553634 -0.29731473 0.08398548 -0.16148894 -0.022114959 0.055832002 0.35779387 0.11820414 -0.16339155 0.14323315 0.21731777 0.12157287 0.10129276 0.053182773 0.30296457 0.170232 -0.18945047 0.29555708 -0.058066998 -0.20712394 -0.2505106 0.12665564 0.004624151 -0.15874173 -0.12324221 0.11782976 0.39037573 0.07522832 -0.10337219 0.021906113 -0.09214574 0.29707095 0.121662475 -0.021633087 -0.045250922 0.2084371 -0.18937007 -0.22377422 -0.22621657 0.37480122 0.16910818 0.0015364721 0.05475989 -0.17110018 0.11527928 0.16997217 -0.15821344 -0.012924287 -0.038420092 0.07073616 -0.26916307 0.12260687 0.08714015 -0.118092574 -0.051413767 0.504251 0.19341782 0.44121307 0.3312651 -0.11246704 0.111106016 -0.414643 0.11387738 -0.05196825 0.04728227 -0.0979127 -0.3878048 -0.15143137 -0.30798724 -0.102186844 -0.09700885 -0.15408619 -0.22100477 -0.4160864 0.10472177 -0.03615558 0.007357055 -0.058862936 -0.0003503659 -0.17531691 0.49938202 0.058482133 0.37683433 -0.11444021 -0.31460854 -0.35383785
103 -0.21992965 0.24249768 -0.018838845 0.3834699 0.11518885 -0.19527908 0.19078717 0.10463979 -0.0377861 -0.44971827 -0.19333655 -0.22636339 -0.30344486 0.14566189 0.370994 -0.5481966 -0.07905501 0.013624613 0.08076776 -0.037282865 0.21179233 0.010784421 -0.14633009 -0.041259922 -0.056214295 0.22869644 0.19383745 -0.011746057 0.10457208 -0.13043123 -0.05494441 0.25783664 -0.12525024 -0.29132417 -0.21691285 0.30164933 -0.011241365 0.092660956 -0.23007588 0.097716115 0.63376725 0.104998976 -0.04240807 0.0715214 -0.31655836 0.11731667 0.06562471 -0.036861323 -0.12625124 0.16837716 -0.37675267 -0.08337804 -0.16945705 0.5029383 0.25170642 0.074496515 0.12514096 -0.0033905418 0.27085122 0.15626664 -0.098534085 -0.15198965 0.04575889 0.11156157 -0.26319322 -0.11517899 0.15798628 -0.12503643 -0.029011259 0.15570508 0.19470839 0.35716286 0.25144932 0.07718458 0.16261163 -0.44648397 -0.13170564 0.1360446 0.22278892 -0.22056805 -0.19572964 -0.045718882 -0.33202568 -0.06684737 0.12459813 0.07143339 -0.29067495 -0.37228188 0.11164649 -0.18291493 0.036044482 -0.013724758 0.18261561 -0.1575327 0.4563647 0.049280904 0.5180843 0.05734324 -0.5524622 -0.21953978
42 -0.1895211 0.2560236 0.01785737 0.3310168 0.14146753 -0.25256273 0.3471154 0.16368663 -0.40624097 -0.45249477 -0.1336948 -0.09878716 -0.13245766 0.20779099 0.3088292 -0.2603815 -0.18233067 -0.044667814 0.010823836 0.092723794 0.40332207 -0.16494031 -0.16417612 -0.052080974 0.115288906 0.20164229 0.11109685 -0.19524772 0.06203944 -0.088462636 -0.09095975 0.3242712 -0.19717433 -0.32777599 -0.42813388 0.37365273 0.1140722 0.0054299934 -0.10260661 0.2761244 0.41205847 0.04442502 0.076537564 0.037653916 -0.23526216 0.077380724 -0.03499277 -0.07141651 -0.14122784 0.046118837 -0.29137507 -0.113473274 -0.051257957 0.3785204 0.16877714 0.2106109 0.12323837 -0.06300714 0.09912142 0.12401656 -0.086997144 -0.15563586 -0.0679151 0.3211131 -0.29698178 0.054252125 0.28306505 -0.11625812 -0.08140894 0.32359728 0.3553437 0.45174313 0.31138808 -0.054782044 0.11000744 -0.40670326 -0.12673804 0.036512807 -0.030550195 -0.2833758 -0.27866608 -0.42036465 -0.30162132 -3.0152694e-05 0.1450053 -0.0060938513 -0.08195287 -0.29694203 0.059159357 -0.06814798 0.0038363375 -0.0017773496 0.20672219 -0.26142454 0.4424426 0.15532501 0.35760647 -0.081301205 -0.5652487 -0.4332784
78 -0.22013105 0.11032738 0.086609334 0.121019214 0.17127185 -0.1176785 -0.0654121 -0.011673996 -0.05964823 0.034022007 -0.029246882 0.12504241 -0.2992272 -0.052030813 0.10683947 -0.26405945 -0.011976547 -0.3335332 -0.041445322 -0.014590381 0.27961317 0.41651082 -0.4691728 0.24472582 0.2535637 0.2147767 0.07429738 -0.123429865 0.16981013 -0.17811711 -0.2078734 0.41413003 -0.023274196 -0.0017063046 -0.087152325 0.079227075 0.019937374 -0.20115325 -0.30250436 0.17422113 0.3958187 0.47229567 -0.03854947 0.4439671 -0.30943343 0.20373441 0.060119145 -0.063665666 0.011783745 -0.23862839 0.035106756 -0.09703271 0.0637806 -0.09374148 0.504151 -0.069396645 0.015983291 -0.29283074 -0.10669104 0.016438046 -0.23963912 -0.2930601 0.12088009 0.14313 -0.18843025 -0.19670552 -0.06616124 -0.15187325 0.42396834 0.4576083 0.46637782 0.585416 0.31974843 -0.106687926 0.264673 -0.29591802 0.14054307 -0.10315352 0.06070685 0.06438987 -0.40058252 -0.013361721 -0.29764745 -0.31737438 -0.25428396 -0.251011 -0.44082135 -0.113135606 0.30354998 0.17074543 -0.2772984 -0.21089306 0.005465383 -0.18505767 0.14589134 -0.17564745 0.73272973 -0.21593733 -0.12647025 -0.5136141
48 -0.2922865 0.81837213 0.036714558 0.2752028 -0.059379037 -0.25610855 0.49576014 -0.009445084 -0.059128948 -0.23177871 -0.43219414 0.060597822 -0.8650854 -0.006868775 0.35372895 -0.692115 -0.023474932 -0.051744916 -0.1430533 0.17491116 0.5201164 -0.5232953 0.11499396 -0.18362246 -0.00415164 0.48464853 0.47310108 0.06787053 -0.35798863 0.043000028 -0.1467709 0.26399645 -0.2359803 -0.22615092 -0.38344482 0.12109761 0.11887408 -0.20762222 0.21744105 0.5480057 0.29626626 0.0330366 0.06236034 0.36838648 -0.20342527 0.20072877 -0.38268697 -0.17724325 -0.1402852 -0.2265231 0.04658125 0.03520514 0.057895254 0.41787875 0.3225965 0.09854877 0.04293283 -0.19011633 0.11311491 0.36173993 -0.14085962 -0.16874588 -0.25744057 0.16205478 -0.27170697 -0.000750462 0.32254785 -0.2687813 0.20265962 -0.16425905 0.088635325 0.44021213 -0.18439423 0.44480047 0.00650783 -0.35407433 -0.12642552 0.0075962166 0.29254195 -0.33166856 0.009773194 -0.26033163 0.21883944 -0.21973935 0.10576187 -0.0132380165 0.102164656 -0.49063966 -0.060715638 -0.059272405 0.062773705 -0.14594385 0.26078686 -0.047072947 0.48498648 0.4998378 0.08241454 -0.06853112 -0.33333957 -0.06133992
25 0.21552762 0.39462 0.14662267 -0.10613922 -0.1761091 0.05290924 0.3924819 0.08201963 -0.07095182 -0.093157105 -0.19137222 0.33029762 -0.4013983 0.13317785 0.071196936 -0.08079132 -0.043762077 -0.0128407385 -0.10269976 0.3814938 -0.09049883 0.18386248 0.47540763 -0.16787529 -0.11622272 0.08508413 0.061771955 0.08840819 0.007185445 -0.07894436 0.122285716 -0.21221013 -0.20923437 -0.3735416 -0.021363586 -0.50461775 0.18077372 -0.13576424 -0.16356444 -0.108917005 0.042240467 0.121932395 0.516199 -0.0063072955 0.24270672 0.0066612144 0.083649874 0.18916047 0.13967176 0.23880297 0.067994945 0.22405367 -0.12353905 0.49273667 0.017766342 0.18444182 0.27950436 -0.07161089 0.03932993 -0.071456306 0.124100596 0.090281315 0.29574123 0.033964444 -0.08527777 -0.12872484 0.24413152 0.18211208 -0.20909281 0.027470963 -0.17477936 0.15606023 -0.08561892 -0.13792937 -0.103267804 -0.16066572 0.084041536 0.09871519 0.3995816 -0.2326412 -0.07996698 -0.1490836 -0.048339583 0.031459454 0.097812615 -0.18882538 -0.15939175 0.07465721 -0.04822246 -0.040232625 0.047721595 0.0853174 0.21072212 -0.0191225 0.31069005 0.032227423 -0.100869045 0.071499534 -0.037437405 -0.14192683
60 -0.15426087 0.61296785 0.075889096 0.18049252 -0.2856216 -0.3052368 0.084826924 0.10216529 -0.36178437 -0.42595756 -0.15977407 -0.1767279 -0.24002813 0.19441435 0.30809018 -0.39075258 -0.21029802 -0.08259876 0.0345974 0.22329141 0.13421902 -0.44415364 -0.12892546 0.034461636 0.054137368 0.032073658 0.1520796 0.025114112 0.09143799 0.04253333 -0.16146894 0.08046052 -0.031508543 -0.40438667 -0.18111295 0.18894209 0.1751807 -0.037978947 -0.12050276 0.16989414 0.48574892 -0.039920766 0.0005195944 0.113173656 -0.09863747 0.11574384 -0.014032062 -0.19554222 -0.27485338 0.23664044 -0.1675877 -0.10349225 -0.19231488 0.435418 0.15899634 0.020958595 -0.034820817 -0.14732568 0.06733164 0.20549129 0.037368875 -0.22660127 -0.11077669 0.20765467 -0.167778 -0.13784 0.23713416 -0.23994464 0.17952721 0.12206356 0.38493457 0.39383316 0.1995916 0.11176112 0.100155786 -0.45509315 -0.17084612 0.02214972 0.12283184 -0.1626439 -0.22232103 -0.3282767 -0.31520686 0.019858466 0.14326927 0.10958571 -0.15840553 -0.12721822 0.1688439 -0.21276589 0.0569603 -0.045733377 0.008010443 -0.16914572 0.49585855 0.10918871 0.29800472 -0.09447395 -0.6499651 -0.39138317
132 -0.05096046 0.26390558 0.077226765 -0.31176278 -0.21903652 0.14422195 0.15947905 -0.065433495 -0.13744515 0.13895729 -0.36960974 0.11537436 -0.2848313 0.20951493 -0.23911057 0.059222355 0.03158356 0.1904461 -0.24851224 0.31799784 -0.19029327 0.1790454 0.37427795 -0.31603894 -0.18237028 0.054944064 -0.07133475 0.044623796 0.09794888 -0.079918526 0.08610089 -0.24812056 -0.27970135 -0.031374305 -0.12548748 -0.3448262 -0.16636351 0.14032179 0.13911098 -0.053862125 0.14241366 0.3552397 0.44641232 0.19966045 -0.034646865 0.11761306 -0.048407767 -0.1514505 0.05067167 0.16914004 -0.00012367169 0.27929193 0.36571112 0.2431923 0.25023913 0.34523588 0.27608016 -0.37861264 0.09057727 0.09372569 0.11872067 -0.0917891 0.46576524 0.5482341 -0.07303879 -0.65678 0.20786421 0.0300156 -0.17374791 -0.061039094 -0.019129911 -0.028899174 -0.061362613 -0.097268924 0.092904486 0.008441358 0.31050447 0.005788313 0.2629204 -0.0415182 -0.024988646 -0.29512817 -0.00026303524 -0.13113266 0.1411452 -0.016307024 -0.13443732 0.03945266 -0.10050462 -0.01756377 -0.10286484 0.048688743 0.023718184 0.07557056 0.20872527 0.12999544 -0.14098775 0.18628792 0.0334942 -0.013632941
150 0.2842339 0.11060436 0.2498743 0.34672526 0.071788505 0.21812902 -0.024448551 0.090179 -0.060334112 0.07692321 -0.07867436 0.4344861 -0.48205012 0.06904888 0.060458627 -0.32332087 -0.36820832 -0.117369555 -0.61684614 0.13583864 0.29176563 0.060707763 0.25812808 0.040390246 -0.012838747 0.11373448 -0.30057925 -0.15705141 0.22687821 -0.032217894 -0.1548164 -0.13802685 0.33196074 -0.034347996 -0.25487703 0.10979064 0.093068354 -0.2894083 0.11512955 -0.11853753 0.27110445 -0.018691352 -0.06281574 -0.30950448 0.022859331 0.11616182 0.21370122 0.2001512 0.063416705 -0.0069783153 0.14739196 0.1733769 -0.11431641 0.62850535 0.04567357 0.12671362 0.287754 -0.27137452 0.10533759 -0.030979274 0.13895133 0.1524073 0.15019263 0.37668666 -0.26218107 -0.12606056 0.016021581 0.07507014 -0.56579846 0.25226125 0.2238232 0.121719435 0.19803612 -0.18866636 0.07032466 -0.52287793 0.39730448 0.18889865 0.2650359 -0.043145243 -0.2985093 -0.3167952 0.06711047 -0.0060887136 -0.14702463 -0.51044625 -0.4798609 -0.10123082 -0.36203042 0.10811516 0.027386947 -0.21191582 0.16984434 -0.36455244 0.2826498 0.33522135 0.43336508 0.016851347 -0.15759301 0.029044373
28 -0.093934655 0.109764494 0.052516308 0.21175513 -0.030858831 0.29795995 0.26476294 0.04358457 -0.08305292 0.15745687 0.15262134 0.5537542 -0.2356987 -0.2615572 0.10268212 -0.1316842 -0.13387334 -0.06357853 -0.28040072 0.3735113 0.13327582 0.0022156863 0.09011069 0.014601456 0.04998359 0.016125193 0.07962491 0.0043548527 0.18689232 0.10730342 -0.14984953 -0.1408218 0.03925876 -0.052289344 -0.24330203 -0.11031614 0.37268293 -0.0044667316 0.19877331 -0.1099078 0.13484187 0.042555533 0.22599182 -0.022180954 0.062299937 0.13410613 0.17298576 -0.1687014 0.21955922 0.2824568 -0.18917353 0.05240723 -0.16976018 0.48679313 0.0070492467 -0.07858417 0.15705158 -0.01030727 0.07843529 0.12205414 0.008826782 0.061193656 0.26718473 0.47580948 -0.28543776 -0.062750295 0.18021262 -0.040328335 -0.26959655 0.17139734 0.08801036 0.25891218 -0.091098376 -0.14437683 0.35808066 -0.26252928 0.018818326 0.0943507 0.17670746 -0.07710373 -0.08288369 -0.051200144 -0.007989428 0.004484374 -0.11952466 -0.06280141 -0.33192742 0.053039413 -0.081963286 0.0854578 0.21146095 -0.13904542 0.18385196 -0.046473034 0.32209727 0.29518032 0.41664052 -0.046703607 -0.11628727 -0.085017204
92 0.18363829 0.31598425 0.15289359 0.27760822 -0.039040223 -0.32814506 0.37032884 0.062889375 -0.04099617 -0.3166044 -0.29826367 -0.043888792 -0.31061313 0.17769377 0.116893314 -0.25686616 0.26679936 0.016714917 0.12418761 0.10279505 -0.121465966 -0.23197176 0.18913881 -0.06471609 -0.11362736 -0.0011720457 0.18273607 0.05810374 -0.04146818 -0.03633221 -0.08139501 0.14169964 -0.15298127 -0.21238919 -0.11751649 -0.053256594 0.47277716 0.055959135 -0.11427465 0.21907178 0.021546248 -0.13016976 -0.0644817 -0.062136706 -7.1618095e-05 0.15679683 -0.32826692 -0.079420805 -0.05954097 0.22723542 -0.04158675 0.16111407 -0.13694333 0.4086737 0.19508198 -0.028347708 0.09725202 -0.32592875 0.15544935 0.1152177 -0.03491494 -0.29356644 0.21808858 0.38741228 -0.13965818 -0.20904656 0.17945886 -0.30994406 -0.16957013 -0.022445453 0.16398172 0.2369448 -0.061450258 0.20247786 -0.053774048 -0.2557733 -0.11229408 0.045094844 0.3332192 -0.21351478 -0.028556235 -0.2806635 -0.25746736 0.036919016 0.10318641 -0.061417002 -0.24705425 0.08382571 -0.0019883101 -0.11704808 0.24761723 -0.019656938 0.11975016 -0.25129047 0.5070762 0.34293926 0.12106157 0.13612673 -0.48569542 -0.079485364
39 -0.27055594 0.25264916 0.04110541 0.18407878 0.19972569 -0.17289887 0.22157225 0.10767119 -0.24585238 -0.27711096 -0.3468736 -0.21045424 -0.18161719 0.024059586 0.360686 -0.40185854 -0.080099106 -0.113609314 0.066636525 -0.0034332788 0.38682777 0.047386542 -0.23818034 -0.011242341 0.22779357 0.28450194 0.31399786 -0.026309758 0.07075009 0.05173154 -0.16026595 0.2882098 -0.14877826 -0.2724327 -0.300257 0.32607424 0.12395029 -0.09605516 -0.12125492 0.08626754 0.34271353 0.039463103 0.057819575 0.026999302 -0.04475702 0.09609933 -0.00067823316 0.031843044 -0.17150423 0.095197424 -0.28040537 -0.1850356 -0.18953273 0.32236615 0.21419366 0.16110474 0.056873016 -0.11614985 0.16456309 0.256689 0.08903787 -0.17377982 0.010606707 0.12538868 -0.33019295 0.101139344 0.20499343 -0.07548485 0.06550831 0.33722454 0.300953 0.46918583 0.29413667 0.018044256 0.16367024 -0.44811147 -0.12663855 0.14574842 0.3313029 -0.21134336 -0.14170466 -0.2140296 -0.32221574 -0.07789859 0.17177226 -0.05444297 -0.28714406 -0.23424692 0.09626313 -0.3009102 0.10869393 0.07596725 -0.0056653335 -0.19528575 0.5196713 -0.025222627 0.4053217 -0.08746614 -0.48191306 -0.38941783
165 0.22013699 -0.021766676 -0.1504726 0.36893144 -0.0091966055 0.30053675 0.37080148 0.20345573 0.14780222 0.052656416 0.10945673 0.27025595 -0.2987648 -0.2885013 0.06502999 -0.050803617 -0.25329036 0.1480904 -0.30849797 0.28218654 -0.010852183 0.0467494 0.05515453 0.0013782233 0.0262215 0.22959903 -0.13699123 -0.16813034 0.40895963 0.14613527 -0.15270858 0.048195906 0.07735869 0.1310605 -0.34892264 -0.19483551 0.37038615 -0.21460375 -0.04944658 0.025015127 0.3455218 0.051133648 0.41810083 0.006777954 -0.115816414 0.04006514 0.2239775 0.02866114 0.10989314 0.27108833 -0.011639452 -0.08266462 -0.33563414 0.41131535 0.014894562 -0.033676628 0.18223877 0.0018180859 0.06285463 0.0067506665 0.15184577 0.04911155 0.18978573 0.4728941 -0.2795867 -0.011349049 0.15140925 0.034261845 -0.37897795 0.26174042 0.19680919 0.15371634 0.13006991 -0.06991983 0.18121469 -0.29756847 0.09066944 0.09647452 0.30001178 -0.19271408 -0.24222627 -0.10095431 0.0009776906 -0.09996865 0.06718045 -0.36194414 -0.4034644 0.11881087 -0.21187206 0.043516748 -0.057191696 -0.117600344 0.14230432 -0.15915096 0.43460092 0.36220595 0.27851656 0.15995963 -0.23837519 -0.10447516
46 -0.16922857 0.70262694 -0.1133063 0.30156922 -0.04918458 -0.27897784 0.41852987 0.006907215 -0.203735 -0.3094647 -0.39683267 0.03511247 -0.61252 0.10820973 0.30268332 -0.46574426 -0.040644307 0.04449912 -0.039705154 0.13561842 0.4641774 -0.37351608 -0.13582318 0.018878153 -0.0252901 0.37288404 0.3750021 -0.027097251 -0.17490792 0.0639115 -0.21464196 0.31743154 -0.26633745 -0.3333219 -0.36608264 0.109890945 0.080844454 -0.101603344 0.17992309 0.4530704 0.32009006 0.0057561663 0.007087687 0.37051344 -0.09790559 0.08724593 -0.14033361 -0.27118856 0.05314287 0.029784845 -0.13780357 0.14655468 0.10943149 0.44632745 0.17872812 -0.066827826 0.15074165 -0.16189004 -0.0132058095 0.13848701 -0.19964595 -0.12923527 0.009961836 0.20359759 -0.272179 0.13493918 0.1872772 -0.17425744 0.020414999 -0.06372915 0.07980176 0.28631726 0.014877222 0.27426943 0.04961955 -0.45383865 -0.15766193 0.022957213 0.3281193 -0.095777966 -0.14994174 -0.13352625 -0.044238836 -0.09162081 0.094734415 -0.012204482 0.035016183 -0.3641465 -0.0019858892 0.0056252796 0.13071842 -0.09306379 0.19677296 -0.08699368 0.3913003 0.103237234 0.15676288 0.032336827 -0.51674247 -0.22439289
75 -0.43380892 0.02972553 -0.13450648 0.14114404 0.24354574 0.15134493 -0.09962642 0.12736538 -0.15581696 0.045584235 -0.2599317 0.061662138 -0.13542809 -0.003903728 0.116864204 0.0124125695 -0.0044016507 -0.17526127 -0.05269912 0.06018059 0.21449976 0.4865512 -0.3534842 0.083715595 0.31602412 0.113065325 -0.03595294 -0.09596418 0.243357 -0.2190146 0.03742406 0.19260293 0.10833767 -0.034941953 -0.16707769 0.08622074 -0.2821359 -0.076975755 -0.27201387 0.3160524 0.33389944 0.5843296 0.06799643 0.38598663 -0.29132563 0.14233083 0.17159247 -0.19016592 0.11599054 -0.2529605 0.08473197 -0.09729331 0.01635406 -0.027009137 0.318443 0.23413117 -0.13601345 -0.4509912 -0.33555448 0.22519253 -0.17936686 -0.3521211 -0.06119168 0.017573407 -0.047750264 -0.30244696 0.068055354 -0.19215837 0.5074315 0.5297466 0.2618109 0.52313066 0.20568156 -0.37245116 0.25772026 -0.06725272 0.3204337 -0.26563254 0.12938134 -0.09249249 -0.5118959 -0.147489 -0.31263736 -0.17593335 -0.24426615 -0.09640286 -0.6150797 -0.18330121 0.1304867 0.11775764 -0.26362476 -0.10162588 -0.20515111 -0.13522778 0.15364566 -0.056861263 0.6650675 -0.024514949 -0.04443711 -0.44114614
29 -0.036031663 0.10933081 -0.25004998 0.3704294 0.08445597 0.17099051 0.3687656 0.21644692 0.014996141 -0.084256366 0.21458414 0.40317473 -0.26133928 -0.085343175 0.104026034 -0.019147059 -0.16444056 0.032943998 -0.14332414 0.25080082 -0.043619234 0.21033426 -0.11521819 0.17077917 0.09447517 0.00267669 -0.06823044 -0.009773641 0.34743983 0.11309058 -0.14945404 0.008991101 0.06857753 -0.06278837 -0.42869377 -0.025127914 0.30261046 -0.18007816 0.10598523 -0.07944528 0.23693521 0.07170112 0.33249828 -0.3833217 0.17113318 0.10876842 0.10393213 -0.05738192 -0.16859885 0.15026027 0.09371804 -0.09104936 -0.17404197 0.53839886 0.075920984 0.029375553 0.07651982 -0.09352095 0.090289526 0.08624711 0.015221386 -0.09058178 0.098033495 0.26175246 -0.29988682 -0.09585027 0.19734578 -0.20517649 -0.17475532 0.011242358 0.19575629 0.1994796 -0.07230338 -0.06286625 0.120796114 -0.32398564 0.20372848 0.20532934 0.3647385 -0.07133411 -0.16893795 -0.059618138 0.055019777 -0.14279385 -0.15206385 -0.25426042 -0.4007324 0.032752704 -0.020276772 -0.121343054 -0.028556786 -0.04883232 0.009741994 -0.09266477 0.36348817 0.28323272 0.22539815 -0.08974171 -0.13373975 -0.23726897
138 -0.16178547 0.70252305 0.041697595 0.3333152 -0.05841393 -0.2285454 0.5435426 -0.114375785 -0.14204454 -0.23249607 -0.50333166 -0.20702292 -0.91287744 0.11956452 0.27161142 -0.48802358 -0.17539194 -0.09838398 0.020300157 0.08406229 0.5157508 -0.5150277 0.09084827 -0.14906467 0.1328405 0.51048493 0.44585934 -0.15296301 -0.363663 -0.059234284 0.041374978 0.042837232 -0.21624646 -0.32527295 -0.3228864 -0.05300104 -0.05782541 -0.1662096 0.33538407 0.43916178 0.3708416 0.062098607 0.07941924 0.42394632 -0.16170475 0.19329883 -0.50160784 -0.19394174 -0.15764633 -0.30751318 -0.09180722 0.07304067 -0.0058543314 0.5304204 0.33823472 0.033101812 -0.11341607 -0.22622667 0.11239929 0.4051719 -0.22625194 -0.19544959 -0.44144946 0.30853924 -0.43001598 0.16629362 0.4431016 -0.3862108 0.13774215 -0.34217978 -0.015277204 0.32709813 -0.19997953 0.50818527 0.17832275 -0.44230795 -0.14958416 -0.06340983 0.42666298 -0.28838116 -0.1513798 -0.28006083 0.29307008 -0.34731445 0.0015252547 -0.21985814 0.13671775 -0.6025218 -0.111008726 -0.0075556366 0.14647233 -0.20504113 0.38101912 0.007201971 0.5026849 0.50959414 0.2603908 -0.106387734 -0.3073004 -0.15736654
18 -0.22586556 0.07140844 -0.0643871 -0.33988005 -0.19827697 0.18035118 -0.10413718 -0.1810922 -0.18444878 0.31719077 -0.3965245 0.21816577 -0.5525933 0.22991851 0.02442151 -0.0014239672 0.08308494 -0.03125319 -0.35013464 0.2590205 -0.1811656 0.4937248 0.06888476 -0.18463065 0.250849 0.037233476 0.0509186 -0.050020795 0.07012951 -0.46309015 0.028089859 -0.12505133 -0.32338062 -0.060281947 0.07891073 -0.28478625 -0.419536 0.11907033 -0.29665044 0.1409769 0.16883016 0.5331245 0.23792325 0.46471813 -0.2642725 0.049946073 -0.0020515388 -0.005039762 0.16406718 -0.32822558 0.39864063 0.17248574 0.12442961 -0.18501149 0.2534531 0.19817467 0.21601754 -0.4818786 -0.21109863 0.17320877 -0.07606042 -0.17759219 0.23093775 0.029963022 0.19548261 -0.61907953 0.06385154 0.12582722 0.33371744 0.108714536 0.2838897 0.34909895 0.036537904 -0.061398137 -0.074506536 -0.122120164 0.35603115 -0.32761195 0.20627487 0.082831055 -0.33082044 -0.09064019 0.023160707 -0.24200612 -0.22597256 -0.15172473 -0.35754427 -0.169221 -0.12910207 0.13963784 -0.28082785 -0.10092171 -0.15701482 -0.066805415 -0.028186146 0.06530615 0.30535853 -0.07591779 0.074176565 -0.41547722
40 -0.27018505 0.3232743 0.04942204 0.24890327 0.07051134 -0.16074716 0.11940425 0.05912591 -0.3131355 -0.29490614 -0.2635871 -0.10320153 -0.39561814 0.010527079 0.2764819 -0.46163633 -0.027471943 -0.12529758 0.18298376 0.1271345 0.3038929 -0.15017718 -0.34803146 -0.020559961 0.08127054 0.26644605 0.22012025 -0.042056665 0.011421659 -0.019208679 -0.079345934 0.19529504 -0.31244293 -0.22300205 -0.27059022 0.22425124 0.18821473 -0.025062988 -0.18074705 0.28373381 0.29071888 -0.0050149197 -0.05694897 0.026218545 -0.17351235 0.14814487 0.044557404 -0.1856718 -0.1569301 0.20655717 -0.44869795 0.0152696865 -0.15922186 0.401593 0.2875709 0.22690907 0.054791007 -0.047207497 0.20928746 0.19274266 0.024014682 -0.16227558 -0.13768479 0.12445328 -0.32721817 -0.01600445 0.21456146 -0.07032353 0.072902665 0.19144581 0.24444115 0.36785716 0.28690332 -0.06330942 -0.021509796 -0.4713185 -0.21658728 0.019315874 0.32189998 -0.18520121 -0.20729128 -0.17253593 -0.31548694 -0.15620628 0.063554354 0.05703176 -0.29143742 -0.2920254 0.14410402 -0.10860677 0.03381891 0.026652554 0.0028340917 -0.22642872 0.4517947 -0.06814508 0.41772842 -0.13946044 -0.33211085 -0.27267456
96 -0.020280736 0.3713158 0.20715062 0.31231618 -0.24477123 -0.028634446 0.23060232 -0.052403513 -0.12274787 -0.19636561 -0.097583614 0.31714788 -0.2449361 0.071661785 -0.014578392 -0.28221458 0.054567434 -0.08241069 0.032583646 0.15772635 -0.0018942509 -0.28406626 -0.005581743 -0.13946281 -0.07346783 -0.16026874 0.18162386 -0.112895966 0.030115865 0.06699795 -0.11852768 0.14145282 -0.10073062 -0.10357925 -0.22465447 -0.038765825 0.46373907 0.068056576 -0.22915322 0.18706682 -0.120186456 -0.21070482 0.23330119 0.095795065 0.03919579 0.22436336 -0.12319529 0.029545095 -0.009439598 0.02320555 0.071239255 0.27251965 -0.07155649 0.25902772 0.07419378 0.010324498 0.06654093 -0.23047361 0.17039971 -0.044151746 -0.1593604 -0.05137427 0.3582131 0.4689516 -0.20341872 -0.23696339 0.17837465 -0.41087738 -0.22090396 -0.12821034 0.11538906 0.1053553 -0.035490308 0.19624652 -0.0065296385 -0.12989001 0.0012166383 0.10020412 0.36140296 0.020480491 -0.072213314 -0.24264202 -0.20957142 -0.09267662 0.11221324 0.011742335 -0.25588462 -0.013322423 -0.33547452 -0.28166944 0.22024135 0.077590086 0.33788672 0.0968949 0.5008848 0.37049264 0.09346675 0.031940594 -0.35648203 0.0039788955
43 -0.2431194 0.4173035 -0.031383622 0.3391127 -0.08768566 -0.19220972 0.3078314 0.2773006 -0.26812008 -0.5069244 -0.42355725 -0.15509686 -0.26434988 0.14498922 0.25852388 -0.35447997 -0.019208066 0.0287193 0.13851508 0.29357868 0.38538724 -0.536681 0.17785248 -0.07460392 -0.076814175 0.15768045 0.15965727 0.045328695 -0.11263017 -0.008785036 -0.22179902 0.2685899 -0.18634357 -0.37201402 -0.26390225 0.10095278 0.2927681 -0.13565224 -0.14998887 0.2450211 0.23245925 0.15178102 -0.016982198 0.07676354 -0.10332154 0.22665404 -0.20083067 -0.13188405 -0.111524925 0.051392507 -0.14184755 0.018311879 -0.015755178 0.47484535 0.065140605 0.32831952 -0.048595425 -0.15954062 -0.113026336 0.11215534 -0.22064313 -0.2033028 0.028684929 0.35536614 -0.16513936 -0.048983723 0.27005053 -0.28974438 -0.055400692 -0.11425829 0.32329702 0.23261568 0.12127147 0.22801897 -0.07271197 -0.3929602 -0.33640042 -0.033000972 0.18914074 -0.23200278 -0.1468958 -0.14692862 0.07380208 -0.13630384 0.14465214 -0.009295782 -0.040836252 -0.14247665 0.0510888 -0.14398992 -0.0066855205 -0.10760803 0.18232666 -0.12210384 0.51099706 0.24764045 0.36603287 0.048590537 -0.50289536 -0.4225006
64 -0.25822222 0.7554894 -0.1487381 0.42601714 -0.23177177 -0.082784235 0.4527551 -0.14872022 -0.044597212 -0.37175554 -0.48661268 0.111889385 -0.75653327 0.03160326 0.40428117 -0.5978707 0.03681597 -0.12239938 -0.16603464 0.28627515 0.5511757 -0.50736177 0.0676028 -0.13023818 -0.08553611 0.39488262 0.4497511 -0.13729635 -0.37786344 0.045172486 -0.14465733 0.21651386 -0.30316597 -0.16743729 -0.4411009 0.065920554 0.01390066 -0.03255458 0.23119916 0.56927055 0.36144504 -0.053380694 0.08929329 0.33803415 -0.06640588 0.13322109 -0.36201248 -0.31348404 -0.1707882 -0.12315006 -0.15422198 0.15407026 0.16347557 0.42561525 0.27323672 0.14534009 -0.067401305 -0.17794253 -0.003980538 0.30503586 -0.28456232 -0.23398545 -0.2768409 0.22497348 -0.12930658 0.1073517 0.3835869 -0.08799242 0.07472855 -0.1411829 -0.017134555 0.3618125 -0.047204066 0.3314991 -0.043993093 -0.41144258 -0.12357016 -0.092935205 0.4899241 -0.2780773 -0.12720883 -0.16208272 0.16045475 -0.18489635 0.06284205 0.004156599 -0.023226462 -0.4494167 -0.04686858 -0.046102047 0.18355876 -0.19570662 0.24678385 0.0960641 0.44641247 0.28456348 0.276649 -0.05927887 -0.38404438 -0.06533383
145 0.17774917 0.3871928 -0.0359613 0.37469214 -0.029864531 0.1118217 0.33955666 -0.20224985 -0.02233822 -0.27815858 -0.18222985 0.42157292 -0.19794096 0.053657476 0.15304245 -0.15155108 -0.07132821 0.17450036 -0.053770624 0.16371545 0.12479047 -0.100461856 -0.1223444 0.06634818 -0.11974908 0.003933162 0.123868704 -0.101523906 0.05702797 0.2630007 -0.20857637 0.06965217 0.2502529 -0.07407634 -0.23633172 -0.23261017 0.38457733 0.018018972 0.01698362 -0.10335094 0.05315785 -0.081480406 0.29261854 -0.20466919 -0.01765244 0.24250925 0.0124611575 0.032412764 -0.03456979 0.22376247 0.112499915 -0.002777915 -0.071668014 0.36911488 0.25209153 0.028962746 0.23656736 -0.14849927 0.096556775 -0.0042261533 -0.053932536 -0.13358447 0.22501887 0.36321375 -0.1623656 -0.17327411 0.113530695 -0.17107394 -0.097797304 -0.11444861 0.20913202 0.18779822 -0.08055198 0.08664694 -0.1522093 -0.14566742 0.11447977 0.24977903 0.27963784 0.023330605 0.0023138265 -0.088965915 -0.011536736 -0.08725669 0.02045931 -0.31058833 -0.43202192 0.059147008 -0.4107563 -0.123993814 0.04874088 -0.053662736 0.023515379 -0.059297137 0.46262372 0.24937437 0.34295914 0.13948244 -0.06282754 0.016384255
55 0.030244278 0.20719016 -0.197406 0.25187543 -0.026456233 0.08388805 0.35362867 0.007954881 -0.09420969 0.106127955 0.2197204 0.38745564 -0.0640587 -0.18422584 0.22144282 -0.051364224 -0.21923193 -0.034844197 -0.2798925 0.10569068 0.1421109 0.12661643 -0.1374819 0.12785949 0.090065226 0.2857184 0.11013 -0.017632833 0.21389987 0.3074419 -0.08930253 0.17864186 0.08210144 -0.037672 -0.22353293 -0.07417044 0.13089475 -0.32819813 0.04052464 0.030993894 0.23033057 0.14495149 0.30396566 -0.26689515 0.07646605 0.34577772 0.32270178 0.12011159 0.12333828 0.1568164 -0.001139462 -0.20466389 -0.19948691 0.50021863 0.11916783 0.027864968 0.18470639 -0.2429081 0.27253667 0.15286614 -0.071470596 0.025723226 0.07159476 0.26593545 -0.4045689 0.021517456 0.18797098 -0.11121124 -0.3227302 0.28567916 0.1661141 0.26671392 0.12035758 -0.10208364 0.4187506 -0.45502543 0.048587993 0.15424226 0.19434278 -0.1780328 -0.08327675 -0.11029324 -0.07334689 -0.15615448 -0.19362506 -0.1388939 -0.54121816 -0.18067025 -0.028596047 0.0018226996 -0.14572951 -0.09550836 0.041448984 -0.17525536 0.34389916 0.20254469 0.25982803 -0.06792512 -0.13639024 -0.094973266
9 -0.31739226 -0.0846989 0.077548705 -0.50239587 -0.14278293 0.1465023 0.108523466 -0.21952368 -0.09081726 0.361915 -0.5135573 0.030814609 -0.49292013 0.15000287 -0.1772233 -0.042868253 0.15799972 -0.0845404 -0.17149168 0.37158725 -0.081215516 0.32295108 0.013731632 -0.19679597 0.045905303 0.1895632 0.08574206 -0.102507636 0.10168758 -0.24900578 0.111089155 -0.22970252 -0.12301749 0.015853979 0.030866241 -0.41196275 -0.2972112 -0.101760104 -0.24357073 -0.06335664 0.114730746 0.5350536 0.22319186 0.53553075 -0.08095671 -0.10220127 -0.09347676 -0.023807427 0.23360696 -0.19403781 0.3469752 0.06443967 0.17409182 0.02018739 0.28406262 -0.045088094 0.15151212 -0.41297767 -0.232961 0.04063684 0.0048970548 -0.11258839 0.20774105 0.062434424 0.0014985802 -0.42072263 0.073079504 0.00764888 0.24094968 0.14297692 0.086108804 0.23881073 0.10419922 -0.16319357 0.13168125 0.0017007753 0.44181412 -0.06382562 0.23128507 -0.07345389 -0.19813661 -0.09197995 0.031513084 -0.012478722 -0.11328588 -0.09956093 -0.39226833 0.11529498 0.009318522 0.062444594 -0.16316614 0.024930315 0.10886591 0.07829832 0.07317301 0.2354376 0.19569707 0.060796317 0.090600975 -0.23431727
99 -0.0043517677 0.30385733 0.108212665 -0.024804717 -0.06832026 0.12399206 0.3896258 -0.14098765 -0.26850653 -0.11636347 -0.048594672 0.47480777 -0.4994229 -0.048251383 0.053706028 -0.030666707 -0.2779495 -0.24011284 -0.4025913 0.2579413 0.025851175 0.033370443 0.32183486 -0.2256385 -0.07343365 -0.29018697 -0.02552389 -0.21798027 0.3335822 -0.029935697 -0.26410192 -0.1963496 -0.1599352 -0.032230802 -0.1520073 -0.28788006 0.44490486 -0.014813712 -0.15743263 -0.16649485 -0.028627401 -0.011798842 0.26658732 -0.3064152 -0.04652596 0.2739971 -0.14221562 0.068289556 0.19911693 0.27649704 0.13903314 -0.03347618 -0.12712502 0.51374835 -0.013430171 0.01908318 0.04828746 -0.07999981 -0.028969297 0.18277074 -0.05106156 -0.15508108 0.22717513 0.43444106 -0.29148594 -0.14725001 0.13786979 -0.21595106 -0.27911866 0.13563402 -0.15646785 0.17398646 -0.08019905 0.27520683 0.1615366 -0.3422287 -0.063862145 0.18259315 0.24960819 -0.07294882 0.13568048 -0.14844623 0.014833649 -0.21638544 0.024706354 0.05378529 -0.1745174 -0.002976137 -0.15687665 0.122769676 0.17290725 0.12583253 0.122598164 0.012748375 0.3134184 0.13383052 0.08048025 0.16760266 -0.24592595 0.1818175
156 0.14884539 -0.09786068 0.12802565 0.1776819 -0.06443427 0.35955253 0.13707641 -0.14237775 -0.02978076 0.46613887 -0.21270986 0.00018742096 -0.2956161 0.23545653 0.08303588 -0.2565111 -0.20554583 -0.01561289 -0.5650946 0.10676539 0.09828442 -0.2509816 0.48897916 -0.2867533 -0.17095736 0.16648005 -0.1540505 -0.121919796 0.6000393 -0.34409675 0.056697235 -0.42183807 0.35168985 0.008131983 -0.40714416 0.11763076 0.13742444 -0.12552178 0.14183164 -0.12678489 0.48776022 0.036582958 0.25474036 -0.25226504 0.07307795 0.24982317 0.14644566 0.18518776 0.23543456 -0.17533234 0.17188181 0.41810864 0.14551628 0.6806112 0.15880723 0.41929907 0.25270608 -0.8748863 0.052526247 0.02211783 0.16558526 0.012502452 0.34186763 0.5445244 -0.36920583 -0.23127404 -0.029721713 0.5647184 -0.32231882 0.27214736 -0.016887961 0.13155836 0.19714536 0.04524365 -0.11237614 -0.40314665 0.67600334 0.17751202 0.3811531 0.026161673 -0.25284776 -0.56068355 0.35212234 -0.068061255 -0.15539616 -0.50883234 -0.45589963 -0.2480827 -0.08828277 -0.17862245 -0.32412305 -0.28162098 0.04795184 -0.36112347 0.33101082 0.2859053 0.09827785 -0.123095565 0.17885318 -0.06079003
38 -0.292401 0.24486591 0.006173007 0.4382014 0.1588462 -0.00830258 0.16897464 0.23769036 -0.19084 -0.19731146 -0.06652023 -0.07030896 -0.26930285 -0.0064021247 0.24588184 -0.23215032 0.11327306 -0.2297943 -0.09634143 0.108902015 0.34607366 -0.008264381 -0.1712573 0.19105104 0.24944125 0.27915958 0.09192949 -0.13987492 0.24589074 0.03981759 -0.04827361 0.29322854 0.0024651573 -0.24139228 -0.063015334 0.26795265 0.038537 0.020062836 -0.024692416 0.12697059 0.45895398 0.15668522 0.042224407 -0.07098759 -0.1832038 0.3773202 0.15839894 0.027508099 0.02655413 0.20510687 -0.21898793 -0.34604514 -0.003322766 0.4009997 0.0889733 -0.018036777 0.060254708 -0.03332235 0.24896409 0.21517645 -0.177939 0.03864828 -0.013725051 0.06410505 -0.23058279 -0.06585287 0.066867255 -0.011043194 0.08099215 0.45318896 0.22330897 0.5486355 0.27069962 0.028586749 0.17435654 -0.35821906 0.00038967485 0.029326811 0.21104923 -0.20268106 -0.2540449 -0.09088369 -0.26270583 -0.023350043 -0.07316959 -0.1783276 -0.2646687 -0.35992903 0.17892502 -0.056406498 -0.10974138 -0.14301114 0.09426942 -0.21805269 0.46109027 0.07379327 0.38329938 -0.11788558 -0.36235523 -0.39485124
49 -0.06331574 0.2839905 -0.15782312 -0.4720808 -0.105773285 0.123849794 0.14123765 -0.3241399 -0.012834234 0.21493131 -0.39121738 0.07991088 -0.48875737 0.15687688 0.19045496 0.24378277 0.22677146 0.1559548 -0.2605124 0.0015428541 -0.28827175 0.28821024 -0.020856094 -0.12097339 -0.29492545 0.39398006 -0.15238515 0.23174776 -0.065690786 -0.008741588 -0.03404447 -0.26381108 -0.35112366 -0.03346902 -0.11720049 -0.31026265 -0.17798007 0.07263486 -0.13324316 -0.20100358 0.02872327 0.4103546 0.45617473 0.10478595 -0.06690715 -0.21557856 -0.06340988 -0.038656067 0.026836926 -0.20768861 0.085121915 0.15167062 0.24593408 0.048294958 0.05858246 0.19827706 0.28205597 -0.31213114 -0.12963 0.26943216 0.07978698 -0.12266345 0.27520457 0.45288625 -0.059171345 -0.2706762 0.11061802 0.2921734 -0.1733419 -0.018522602 -0.0045369295 0.2845663 -0.3771843 -0.01178536 -0.09865969 -0.18642737 0.5257511 0.013217576 0.48215112 -0.033320878 -0.025915455 -0.4805824 -0.09735491 0.054259844 0.2774481 -0.07679755 -0.337876 0.10329823 -0.11395489 0.114991166 0.1772568 -0.020671131 0.15425935 0.0490635 0.29238066 0.4036225 0.043397307 0.16053143 0.018024374 0.026246585
32 -0.08861588 0.1593537 -0.14532599 0.36363763 0.049176432 0.24379708 0.21906585 0.12537162 -0.19882551 0.010403589 0.1359511 0.3373104 -0.07276105 -0.19149645 0.115981326 -0.07446074 -0.29796755 -0.10623092 -0.2713279 0.1251607 0.2752547 0.029711321 -0.041496914 0.10887615 0.13438807 0.24055263 0.08651442 0.096458144 0.23959787 -0.09484114 -0.15181398 0.15449859 0.085688025 0.07822181 -0.18257311 0.019131936 0.12890004 -0.3131821 -0.03189555 0.0080925785 0.2753223 -0.06483528 0.2140807 -0.19022973 -0.05167828 0.05375264 0.29278442 -0.0006918664 0.1594833 0.20708284 -0.12920335 -0.21061465 -0.08502999 0.40463254 0.13105518 0.14270866 0.05547854 -0.14247932 0.076215915 0.027821982 -0.10869286 0.053232186 0.023592152 0.1557015 -0.32386702 0.001797739 -0.092891246 -0.18102132 -0.26814818 0.36356193 0.21787564 0.5000956 0.032025255 -0.08567135 0.17766616 -0.4554193 0.08398554 0.24093394 0.17812654 -0.073291965 -0.45935017 -0.049865093 -0.26376152 -0.023583014 -0.23051855 -0.15866327 -0.37366498 -0.013583409 0.11254808 -0.041259684 -0.08132948 -0.20457357 0.05855503 -0.13504113 0.36211687 0.21997367 0.6227804 -0.066290826 -0.13108772 -0.0033490974
27 0.18481873 0.27067268 -0.011107646 -0.030637385 -0.25579646 0.16362737 0.31508303 0.18132849 -0.20279741 -0.1745788 -0.15908433 0.50270593 -0.36932087 -0.13730887 -0.029040316 0.048356637 -0.1957662 -0.32140988 -0.1290563 0.36830452 0.057231434 0.1250272 0.1021435 -0.113767 -0.1095868 -0.058068212 -0.19991644 -0.00027201543 0.28060684 -0.060560193 -0.11533521 -0.037161898 -0.047768407 0.06526303 -0.063996784 -0.36457267 0.26752004 -0.045587465 0.08159579 0.017685069 0.05362873 0.03413649 0.4142176 -0.1308189 -0.01217424 0.22156477 0.004509003 -0.058198445 0.24306342 0.27033383 0.14487427 0.19571821 -0.18300147 0.5257196 -0.00792723 0.13968675 0.010084327 -0.13614994 0.052644614 0.22858314 0.052373804 0.19007573 0.15560664 0.33308014 -0.38937366 -0.14888847 0.271493 0.073003545 -0.22947897 0.008140026 -0.065549366 0.17266035 0.030521782 0.11619888 0.10129165 -0.34762686 0.028300142 0.3654166 0.35038775 0.082303874 0.14712448 -0.10083094 -0.13941857 0.06931673 0.18374763 -0.17537802 -0.35021767 0.09831901 -0.1199832 -0.02418789 0.0977946 -0.06616974 0.24718446 0.014443215 0.2535633 0.046559982 0.14280856 0.11522038 -0.30567142 0.1765759
166 0.06865836 0.17977773 0.069006264 0.37273797 -0.14600886 0.21019767 0.36569026 0.083491385 -0.05445423 0.20055164 0.055579588 0.4173371 -0.35242835 -0.29829445 0.02100909 -0.1474323 -0.3020589 -0.22256014 -0.3971038 0.3086805 -0.15625331 -0.119629964 0.058757555 -0.14751594 -0.0552925 0.011220842 -0.1179515 -0.07267332 0.4592422 0.030601945 -0.09921763 -0.24323806 0.17350815 -0.13510698 -0.15706132 -0.049066387 0.15878968 -0.19455662 -0.060243078 -0.085778974 0.2631362 0.29556566 -0.022657787 -0.06561979 0.14674218 0.07673511 0.106468506 0.14773351 0.13145737 0.008598086 0.21532165 0.06520342 -0.18654373 0.6105173 0.012086159 0.056731846 0.33053702 -0.08100305 0.2829919 -0.090526626 0.09781985 0.2631839 0.22153668 0.48094383 -0.418386 -0.10454856 -0.059378132 0.2524808 -0.33255666 0.092029 0.12746169 0.12334497 -0.08560891 0.11739727 -0.03731534 -0.48440784 0.26982856 0.3497052 0.33906463 -0.13552436 -0.3127016 0.023730975 0.21298972 -0.014084399 -0.013226086 -0.4161184 -0.359032 0.020081852 -0.07692836 -0.014899906 0.10934772 -0.08519236 0.2042826 -0.24770117 0.28216502 0.24735004 0.320871 0.16162096 -0.14546722 0.06365837
35 -0.21127433 0.0034155764 0.02229611 0.2285434 0.21908301 0.099521935 0.15980929 0.11954104 -0.042629458 0.0022748932 0.00040733235 0.2153728 -0.28752515 -0.039064776 0.14217225 -0.29173923 -0.14086983 -0.18535718 -0.05298444 0.14678761 0.57725066 0.2595709 -0.18516305 0.16025871 0.33410653 0.12611714 0.057583418 -0.12454322 0.37584347 -0.031346563 -0.022149928 0.4984918 -0.024334488 -0.09554683 -0.2871491 0.1033026 -0.08586125 -0.1167228 -0.31809855 0.20627493 0.41532567 0.035281055 -0.11453289 0.06446504 -0.13114944 0.15392482 0.22453919 -0.052346736 0.08450283 0.23113981 -0.042912975 -0.19189101 -0.2681577 0.19043717 0.18929829 -0.16483198 0.02202625 -0.29171753 0.058235932 0.2225631 -0.21755134 -0.124419935 0.027662044 -0.07683162 -0.15282127 -0.041686013 -0.011832128 -0.19727448 0.10217911 0.30164388 0.2462729 0.41538876 0.20511314 -0.055196904 0.25002062 -0.42760623 0.11112221 0.0018800723 0.07121307 -0.13837351 -0.5736358 0.035219274 -0.14072178 -0.021643681 -0.25497153 -0.18071054 -0.3027478 -0.340866 0.15851201 -0.030158443 -0.0475861 -0.15061265 0.12065978 -0.25418904 0.0902759 0.11393443 0.5145292 -0.1620542 -0.23914416 -0.30293635
10 -0.3197864 -0.021484278 0.011569633 -0.26758873 -0.15901127 0.16898943 0.06975179 -0.27175784 -0.046214186 0.14219074 -0.32781598 0.18239833 -0.4875162 0.0730038 -0.17516994 0.07889905 -0.06295747 -0.101433665 -0.25445402 0.19348358 0.069309145 0.28164315 0.04471263 -0.14088576 0.18182999 0.12203595 -0.07798013 -0.05438641 0.16505535 -0.43626755 0.11751545 -0.1492109 -0.17572191 -0.035205115 0.058386028 -0.49944127 -0.14939456 0.050666045 -0.4374222 -0.019499823 0.23428369 0.709257 0.18612821 0.5925464 -0.02341434 0.09957386 -0.016078534 0.025695814 0.11417078 -0.43707377 0.28628454 0.36310208 0.16993913 -0.13351196 0.3004595 0.015395898 0.2435779 -0.495915 -0.33567157 0.0029631814 0.048588794 -0.33520103 0.12634191 0.06297657 0.002619048 -0.41129002 0.16821416 0.0101586785 0.1623722 0.27299917 -0.073446006 0.28658786 -0.044314124 -0.051196158 -0.16928203 0.01784422 0.39268345 -0.22536416 0.10327988 0.103263214 -0.026344512 -0.27252764 0.06778673 0.04866845 -0.12945688 -0.14419726 -0.3956338 0.029799897 -0.045212064 0.107262865 -0.22005273 0.17924243 -0.02241968 0.011639235 0.014465733 0.32125872 0.15793431 0.11511366 0.13904093 -0.3241239
81 -0.07556898 0.78577554 -0.050587006 0.30371594 -0.18850262 -0.24483234 0.2600863 -0.11401275 -0.23941512 -0.27146855 -0.39813036 0.110737965 -0.38228843 0.045013156 0.23113269 -0.3535303 -0.04350003 -0.037409928 0.1429701 0.21831506 0.3164687 -0.3465541 -0.022001844 -0.028074566 -0.18265453 0.076491855 0.23469429 0.051631726 -0.34838295 -0.053607382 -0.34279037 0.2874678 -0.17235273 -0.24982171 -0.5262346 0.06765317 0.2675593 -0.017013846 0.087657794 0.39044034 0.3837712 0.0040303944 0.12822892 0.35577455 -0.09618965 0.21746938 -0.28285268 -0.18701828 -0.013188123 -0.0018361243 -0.0945938 -0.10457426 0.12451933 0.41096634 0.107397676 0.1509638 0.1383176 -0.014351403 -0.04936025 0.12764165 -0.19334398 -0.10809098 -0.10908911 0.15900816 -0.24117422 0.22842263 0.25974917 -0.1529519 -0.106576376 -0.17665347 0.13473944 0.3660833 -0.07584152 0.2483332 -0.065444015 -0.29139802 -0.24011208 0.054495286 0.24889655 -0.1311579 -0.20843041 -0.14475562 -0.046511058 -0.13201322 0.21670744 -0.0660681 -0.24720135 -0.11054158 0.09970723 -0.111175284 0.10303013 -0.19910723 0.2860689 -0.10431215 0.538354 0.41322342 0.15653472 0.022128735 -0.14184028 -0.2664321
148 0.073637575 0.2612764 0.29232788 -0.0050708773 0.014816337 -0.21258108 0.41160232 -0.09503888 -0.098306805 -0.37779036 -0.16137482 0.26147097 -0.24207053 -0.08788578 -0.0012181328 -0.126991 0.14324442 -0.037392538 0.0060633253 0.13577038 -0.044242136 -0.21376127 0.03850514 -0.095403686 -0.06496928 -0.15441522 0.16152948 0.13161056 -0.029572966 -0.083679534 -0.030527836 0.0014378898 -0.07832558 -0.015960176 -0.14671953 -0.20120192 0.51990527 -0.14823167 0.019349586 0.05192458 0.0766584 -0.097438596 0.14462909 0.051661786 -0.020928424 0.013012544 -0.1821577 -0.03590956 0.055003628 0.3441999 0.11480183 0.17023748 -0.012339537 0.46113208 0.36359343 0.10570092 0.31772918 -0.16541094 0.15354407 0.03045387 -0.11882609 -0.19348408 0.42084086 0.3750521 -0.07766991 -0.13564236 0.070731014 -0.1555089 -0.07281828 -0.30444622 0.11212621 0.12405553 -0.03148 0.107099265 -0.14843018 -0.38667154 0.07612452 0.1638899 0.22085752 -0.21821755 0.25176728 -0.2546112 -0.12806384 0.047290783 0.033855844 -0.11613376 -0.17278332 0.14666454 -0.19999458 -0.06803537 0.1881943 0.04366577 0.03281034 -0.043056604 0.44908524 0.34405214 0.21550596 0.1951258 -0.50120527 -0.029310895
82 -0.15263766 0.9659209 -0.048815317 0.40395436 -0.12358384 -0.14936799 0.5022118 -0.08783298 -0.13300909 -0.21123685 -0.5631483 0.05504875 -0.75381726 -0.050418027 0.40156165 -0.40974832 -0.17879494 -0.09144171 -0.11532912 0.09620545 0.5248578 -0.38591886 0.0018199366 -0.008268002 0.08941872 0.3741624 0.5122713 0.038377643 -0.32489115 -0.09703568 -0.15222864 0.17990573 -0.25732973 -0.29690778 -0.32529753 0.014084024 -0.00065341976 0.012088374 0.3225799 0.57185954 0.31778637 -0.02848632 0.05590515 0.347244 -0.19291933 0.2374283 -0.52338594 -0.33282897 0.016827276 -0.16432863 -0.084368214 0.24062498 0.051798437 0.5460858 0.22186677 0.026688097 0.011217799 -0.10738245 0.008421468 0.26807365 -0.17347944 -0.23985024 -0.31396365 0.2987342 -0.3038184 0.0073019248 0.34278724 -0.16456376 0.14029981 -0.27138522 -0.14462124 0.2962398 -0.11081002 0.3563539 -0.11706116 -0.3483846 -0.032806046 -0.05557622 0.34868914 -0.24169804 -0.096868075 -0.23482262 0.26864702 -0.19272125 0.06393022 0.04771366 0.0075969254 -0.59392583 -0.023700994 0.05521528 0.17204212 -0.20576635 0.1854014 -0.014866439 0.5364825 0.43837625 0.19103447 -0.09598316 -0.33682328 -0.12888582
76 -0.31879342 0.017434034 -0.033550423 0.06222581 0.2836408 0.04403449 -0.05552781 -0.049884196 -0.1785408 0.023148311 -0.28797916 0.18563686 -0.38419303 -0.061073754 0.33935067 -0.21142304 -0.23340948 -0.22983888 -0.15932065 -0.22575992 0.28051698 0.57899654 -0.38122028 0.37168592 0.4692365 0.13189694 0.22545327 -0.09616391 0.34265032 -0.115705796 -0.19985089 0.17792036 0.09972821 5.312717e-05 -0.018958919 0.164886 -0.24829663 -0.21055612 -0.28359556 0.20097531 0.4654449 0.46365327 0.119974434 0.33033654 -0.283185 0.113546416 0.004234357 -0.22915393 0.02216272 -0.30656925 0.07076038 -0.031245003 0.21754894 -0.024070494 0.36281422 0.09124743 -0.0055138264 -0.5245895 -0.31832284 0.06607279 -0.20057404 -0.40837955 -0.095855355 0.1317086 -0.1554129 -0.2387327 -0.006903983 -0.29429033 0.64007187 0.5767415 0.3815667 0.44551936 0.22408517 -0.19767189 0.18847457 -0.08045134 0.19613019 -0.20881447 -0.18453436 -0.19478026 -0.45113134 -0.13721377 -0.3174692 -0.14631848 -0.13635187 -0.13407685 -0.46253732 -0.16100495 0.2594812 0.23344512 -0.44548646 -0.27253848 0.014336239 0.014965522 0.2450652 0.13919032 0.747357 -0.106715515 0.027938977 -0.3708894
8 -0.040811427 0.068858504 0.16053689 -0.34184533 -0.15785351 0.11709994 0.0675433 -0.17299953 -0.094497904 0.24941634 -0.3314778 0.09900698 -0.3942838 0.107703604 -0.13502426 -0.038645353 0.011514425 0.0014830976 -0.24305798 0.1774744 -0.2489199 0.1841814 -0.05019006 -0.103166364 0.11363093 0.19082853 -0.10982742 0.06735242 0.23657338 -0.19040485 -0.047220483 -0.15448746 -0.11673325 0.0371187 -0.0032108286 -0.38114274 -0.17725489 -0.037630502 -0.13666576 -0.018540783 -0.10925104 0.6231349 0.21742353 0.47794604 -0.17773385 -0.19587128 0.033051316 -0.11725296 0.12941436 -0.37248763 0.30561545 0.32579353 0.16559018 -0.1794833 0.29360995 -0.13306782 0.30373856 -0.44030282 -0.09840381 0.19136195 0.06244689 -0.012117133 0.29965594 0.24132276 0.08149655 -0.5165518 0.27016273 0.17713964 -0.10588268 0.027672278 0.09465626 0.17010921 -0.20753859 -0.13828573 -0.06133956 -0.15828097 0.367252 -0.0005893987 0.24645747 -0.01813078 -0.105035454 -0.16120377 0.014761434 -0.12521666 -0.03407757 0.036964897 -0.30412802 0.15013479 -0.10924883 -0.07430535 0.013257367 0.016241262 0.13365477 0.13327472 0.22765248 0.2679251 0.021655176 0.109623484 -0.0139749795 -0.23977573
47 -0.22462103 0.73334116 0.044782326 0.17494433 -0.16808212 -0.068392515 0.4576763 -0.009912826 -0.05866997 -0.29558071 -0.50763535 -0.050663386 -0.6380673 -0.01067308 0.31590778 -0.4844027 -0.1311505 -0.03479958 -0.031979945 0.2537114 0.45526847 -0.49552858 -0.04016039 -0.12072636 0.05127081 0.33040887 0.42846546 -0.0071089733 -0.25259876 0.06343145 -0.16776238 0.2525979 -0.31283486 -0.2436756 -0.49136817 0.114538655 0.29087675 -0.14921579 0.22537519 0.74996877 0.12904166 0.0062906845 0.068203814 0.5454711 -0.21274887 0.20764624 -0.2351838 -0.35488015 -0.150586 -0.088981375 -0.048475448 0.13603692 0.07166223 0.56585133 0.12039132 0.12014149 -0.01737303 -0.09602263 0.113624394 0.2597377 -0.21573165 -0.117802136 -0.097190596 0.3276254 -0.16766211 0.22649586 0.18351327 -0.1407906 0.012631541 -0.046398275 0.09832501 0.37559602 -0.08882399 0.315891 -0.076923065 -0.37946907 -0.20514861 0.0784967 0.31237602 -0.27778754 -0.11860554 -0.017086145 0.21459737 -0.1408753 0.0145708425 -0.08976883 0.026522348 -0.38830295 -0.04855851 -0.14142531 0.10847916 -0.25004897 0.16611739 0.04035595 0.6088659 0.31181973 0.06722598 -0.07211024 -0.34011406 -0.23354952
152 -0.023078047 0.047381543 0.21655199 0.23855904 -0.04711957 0.39563525 0.07865669 -0.11913251 0.011085162 0.40840545 -0.27878594 0.25983715 -0.34301445 0.1926066 0.09059386 -0.33014822 -0.32620952 -0.0037904477 -0.61986625 0.28989506 0.024313094 -0.22695337 0.49672282 -0.071527116 0.02288302 0.18712984 -0.31728056 -0.023011865 0.46480173 -0.098336115 -0.055372704 -0.2514851 0.42964268 0.089107454 -0.26454875 0.18726966 0.09868667 -0.19724011 0.19446883 -0.11923317 0.43280628 0.12938438 0.005495946 -0.5387073 0.0590241 0.3268645 0.15665649 0.06745787 0.17533681 -0.14393583 0.1361084 0.19766383 -0.059874143 0.67522 0.15768619 0.4844905 0.3469081 -0.74161965 0.06776468 0.015703728 0.14009452 0.15171885 0.3296871 0.49280652 -0.45685217 -0.035744864 0.0015627978 0.40954855 -0.23758292 0.29304096 0.15742314 0.06121909 0.23628479 -0.062116668 0.057572693 -0.5288818 0.5820717 0.030568272 0.4133617 0.26734722 -0.2680042 -0.45152923 0.37276092 -0.0089995 -0.16892438 -0.5994559 -0.37943023 -0.14978595 -0.17976035 0.019717794 -0.23001665 -0.25461173 0.09736811 -0.3209849 0.38804597 0.36936986 0.29178014 -0.07268111 -0.12326012 -0.034606494
30 -0.17148894 0.11135818 -0.10119552 0.32898852 0.014652193 0.07663503 0.37985042 0.23601198 -0.05982659 -0.089871705 0.42851487 0.36580136 -0.13526812 -0.20000443 0.11985127 -0.03491556 0.024787793 0.013077786 -0.15417558 -0.013933571 0.025287908 0.3678557 -0.28164953 0.19904087 0.02293431 0.20523046 0.0653707 -0.038333148 0.3345838 0.12862927 -0.09833692 0.21503986 0.08848495 -0.07688912 -0.37273222 -0.041764222 0.19943826 -0.4236357 0.07718035 0.08937205 0.20553496 0.13039279 0.23567507 -0.3342831 -0.12718701 0.40592635 0.28748333 0.053233694 -0.04472066 0.17344959 -0.14977749 -0.026379202 -0.22181855 0.70408154 0.2310112 0.15122724 -0.12663098 -0.28441945 0.0400814 0.28363746 -0.0397941 0.0005577155 0.24508552 0.33302677 -0.23650233 0.04787923 0.2962591 -0.013918373 -0.28361455 0.27102166 0.13714989 0.25594756 0.08162491 -0.120934464 0.23766232 -0.28542724 0.28237075 0.2602874 0.011861936 -0.31027925 -0.25740436 -0.111249186 -0.042788126 -0.25573894 -0.44354156 -0.06447249 -0.3860778 -0.22535124 -0.00020297478 0.018630821 -0.10321096 -0.054509077 0.049743846 -0.055334184 0.37956083 0.33264253 0.34637633 -0.1589655 -0.23816077 -0.013181677
97 0.18334603 0.5409023 0.30783874 0.1826829 -0.23917307 0.17873046 0.34597346 -0.052263573 -0.3124198 -0.12518159 -0.0907685 0.34953353 -0.22225791 0.2706637 -0.01281567 -0.16775636 0.06638653 0.08071433 0.020699622 0.1413911 0.05287569 -0.18658884 0.089008406 -0.31694323 -0.08560417 -0.08956378 0.13589707 -0.19956101 -0.12176936 -0.030422308 0.03328241 -0.14852777 -0.20809604 -0.15392452 -0.18921475 -0.073778726 0.69887334 -0.004989985 -0.14482628 -0.13325214 0.067685 0.21435297 0.13926882 -0.10328514 -0.276162 0.18130255 -0.21023244 -0.21459681 -0.05260481 0.30299363 0.21833552 0.08896385 -0.103239596 0.37634465 0.24106811 -0.16227241 0.3316135 -0.07999251 0.02753378 0.23342581 -0.15252869 -0.13986357 0.2866727 0.2258378 -0.20179446 0.05015782 0.05563525 -0.21841528 -0.25091034 -0.033854596 0.19354346 0.11967853 -0.11749311 0.11887488 -0.051424164 -0.18121012 -0.017931558 0.11031079 0.3323822 -0.040747337 0.050138798 -0.21874781 -0.14765804 -0.44387174 0.060283415 -0.077613845 -0.25106204 -0.08710038 -0.1086557 -0.00595216 0.23978922 0.24898122 0.31262484 0.013031392 0.22206792 0.34871197 -0.08194081 0.14039566 -0.24764034 0.167387
147 -0.12628572 0.35125118 0.11364605 0.13458942 -0.025435517 -0.3107131 0.21559435 0.0938802 -0.31271183 -0.27653977 -0.31022444 -0.14492172 -0.47611314 0.079281375 0.054322816 -0.41604137 -0.08654545 0.0137454225 0.14587715 0.11034529 0.17585017 -0.42381445 -0.032477412 0.0067630797 -0.35009703 0.13449673 0.29547653 0.06505759 0.16654949 -0.0167254 0.019489361 0.16706504 -0.13216561 -0.4007928 -0.20620231 0.14781328 0.11306026 -0.108179115 -0.06793385 0.1522422 0.22147514 -0.056630142 0.042526923 0.15787588 -0.03583815 0.17371237 -0.093168326 -0.18563391 -0.4289283 0.09240699 -0.1783432 0.07673515 -0.18534973 0.58348626 0.09264902 -0.0110708745 0.12406465 -0.04978697 0.094436035 0.18454716 -0.19518498 -0.3702005 0.22438565 0.41124025 -0.12422802 -0.028777247 -0.023612373 -0.24261867 -0.014582848 -0.020272505 0.23986949 0.17732978 0.04862807 0.14213851 0.00689128 -0.119797096 -0.17202413 -0.033234783 0.33282232 -0.15698832 0.06564842 -0.08356969 -0.26018196 0.04989898 0.19413345 0.03959481 -0.25104535 0.02525518 -0.050182257 -0.10648545 0.073742785 -0.02243798 0.09709354 -0.081744954 0.38476047 0.24206354 0.29889897 0.13124591 -0.525456 -0.3122526
115 -0.13736057 0.60742086 0.046353437 0.18250561 0.1340036 -0.40251827 0.31117868 0.102616325 -0.16540512 -0.46722844 -0.23560509 -0.26228788 -0.5733459 0.011451003 0.17470141 -0.14387815 -0.11986933 -0.041610092 0.22564936 0.28926125 0.30789807 -0.616025 -0.00094940374 -0.024453528 -0.20847747 -0.07484834 0.18617958 -0.036311615 -0.08846663 0.03255685 0.10863012 0.331739 -0.3957791 -0.18645811 -0.25384864 0.13297223 0.34105793 -0.03405824 0.01987181 0.27384457 0.26832488 0.13988557 0.153273 0.021469226 -0.046816602 0.08393533 -0.1756912 -0.018236618 -0.14370538 0.04041463 -0.14924932 0.14648303 0.07765996 0.35954785 0.10014713 0.016691815 0.19558808 -0.06548903 0.021782042 0.10498759 -0.08186675 -0.22774027 0.25233892 0.40018734 -0.2373929 0.0025074163 0.21177226 -0.14204454 -0.1286592 0.10198461 0.11678181 0.17648794 0.26589823 0.19017671 -0.07670487 -0.19062586 -0.16775195 0.14562424 0.2345716 -0.2754679 -0.14159933 -0.30422434 -0.20438372 -0.027696257 0.068252794 -0.058862627 -0.10633931 -0.06989635 0.038247667 0.03708219 0.023110569 -0.023180695 0.1283564 -0.14124583 0.37994885 0.2877698 0.28039792 -0.031286553 -0.54057735 -0.28771463
45 -0.3021188 0.41934374 -0.1537187 0.32252753 0.11153116 -0.27634874 0.5209399 -0.063039236 -0.3110091 -0.43527842 -0.4028149 -0.12742741 -0.69620186 -0.022474654 0.32054922 -0.32798016 -0.05335297 0.035320446 0.18117313 0.4161713 0.28493294 -0.5750876 0.105529755 -0.08962801 -0.20375186 0.12009776 0.1806904 0.046021964 -0.27556995 -0.02377878 -0.15133291 0.21904565 -0.20792174 -0.3617706 -0.19336925 0.094602786 0.012294308 0.00063783897 0.18802287 0.36404178 0.15143722 -0.050174665 0.047101412 0.33878392 -0.38139832 0.36226037 -0.26035273 0.048587773 -0.13390899 -0.018982427 -0.022888787 0.061045337 -0.013040534 0.47058752 0.18801166 0.14818548 0.117697254 -0.20739971 -0.12860812 0.14534555 -0.14926589 -0.2702801 -0.0071481494 0.3113119 -0.33142012 0.17507534 0.25835463 -0.47200242 -0.13606961 -0.24977337 0.18273439 0.30754733 -0.17091222 0.31004593 0.05890518 -0.6510821 -0.034856025 -0.08704487 0.21548244 -0.21120948 -0.08645634 -0.18287094 0.07349211 -0.10771023 0.11582612 -0.08422762 0.056400783 -0.483556 0.056201927 -0.16151999 -0.20415808 0.0341895 0.4179191 -0.28377533 0.2135574 0.40457445 0.07079472 -0.14089742 -0.39369318 -0.24724396
128 -0.30832428 0.13649088 0.14176916 -0.37529457 -0.1499535 0.08563174 0.12432728 -0.060789414 0.03758562 0.42967895 -0.4057138 0.090532914 -0.4853815 0.18870273 -0.02754882 0.010670191 -0.06789504 0.011804676 -0.07525556 -0.08346219 -0.40027013 0.1424096 0.24020302 -0.20549679 0.008247437 0.0040321485 -0.012504 -0.09552363 0.20396544 -0.19596311 -0.037375536 -0.4094214 0.06077771 -0.19100565 -0.026759049 -0.42814654 -0.11156804 -0.1787946 -0.157945 -0.3194763 0.07956068 0.42736292 0.30166098 0.3030908 -0.06294871 -0.025180295 -0.16771092 -0.15857232 0.2086238 0.0011217465 0.3744023 0.32123244 0.36343652 0.24029443 0.22880681 0.16326298 0.123325385 -0.56455535 -0.43927106 -0.001973868 0.24364558 0.009018939 0.19025497 0.30297932 -0.10891754 -0.28346497 0.11852233 0.024298914 0.08703944 0.0045081065 0.06439637 0.15751353 -0.10406775 0.072533995 -0.19927327 -0.011969318 0.36924958 -0.19417542 0.4120704 0.17715609 -0.06868357 -0.389946 0.04903226 -0.18242577 0.011357043 0.065743245 -0.28766516 0.21303748 -0.073116526 -0.05733997 -0.11355218 0.015123283 -0.15832098 0.13674662 0.31273612 0.23777969 0.16317192 0.047030173 0.11563022 -0.062425967
54 0.10333555 0.3646555 0.06445131 0.018142551 -0.24308836 0.0034672047 0.34050915 0.03664391 -0.027931113 -0.07926618 -0.12188609 0.41036358 -0.33190992 0.030680547 -0.050345596 -0.21211182 -0.25804314 -0.22177564 -0.12883116 0.34429443 0.067573786 0.19123481 0.34200862 -0.15188354 -0.08572729 -0.20043048 -0.05785439 -0.0842593 0.16952863 0.057282243 0.16652091 -0.19435935 -0.20307094 0.010489358 -0.1379812 -0.3445771 0.25579998 -0.1881363 0.06588058 0.042144038 -0.051445056 0.062109426 0.19228847 -0.1313874 -0.036341995 0.07062894 -0.018905805 0.06640938 0.18084939 0.36542565 0.12601137 0.23443691 -0.31840017 0.45099357 -0.09786171 0.052759677 0.09399178 -0.08471759 0.105502434 0.2530718 0.15772346 0.20952582 0.21383156 0.1827839 -0.31890592 -0.1441576 0.23479646 0.046003003 -0.157005 0.005043712 -0.0040743207 0.19119778 -0.076216504 0.2599649 0.18535003 -0.4795761 0.20902045 0.17210738 0.46175086 -0.1340288 0.058494493 -0.043064408 0.07965397 0.11544867 0.14981504 -0.09336246 -0.29023916 0.1332935 -0.102395 -0.016180227 0.3260659 0.004559435 0.1836932 -0.07214335 0.21782614 0.3128458 0.2416448 0.103139244 -0.34006834 0.006127903
70 -0.40368196 0.3225477 0.04723303 -0.5841009 0.093993515 0.14028865 -0.12300959 0.004408794 0.05398773 0.3243997 -0.14557761 0.17003645 -0.6021619 0.264583 -0.08407227 -0.092818454 0.09570527 -0.19556935 -0.024322737 -0.03838192 0.09221395 0.51839375 -0.095489755 -0.03202499 0.5466379 0.35028934 0.108974025 0.025443781 0.2306167 -0.27871323 0.18382631 0.16939291 -0.26401955 -0.040425852 0.21505134 -0.20226116 -0.3891666 -0.013549657 -0.2539202 0.3312372 0.39311862 0.56426144 0.027111406 0.70043385 -0.36990163 -0.017931359 -0.07141085 -0.03806989 0.17216265 -0.40367633 0.27950314 0.15647319 0.205979 -0.12322097 0.39668933 0.31632948 0.04372573 -0.7574539 -0.0020416586 0.5392048 -0.18342026 -0.21829008 0.20640257 0.07766775 -0.0551149 -0.3751488 0.06628462 0.2809698 0.4492955 0.15191013 0.14466305 0.35961732 -0.056149676 -0.2464284 0.08906167 -0.02286182 0.3579411 -0.34688315 0.116986044 0.08692753 -0.53092676 -0.16145732 -0.22196245 -0.1017106 -0.09988425 -0.29122397 -0.31970152 -0.358433 0.013585605 0.07593205 -0.34912524 -0.19731984 -0.14498492 -0.30360946 0.26748702 -0.009110291 0.42031017 -0.049121413 -0.016600689 -0.649212
14 -0.37425438 0.09350368 0.27286926 -0.4936117 0.0546319 0.07072502 -0.07183782 -0.2751216 -0.24781343 0.2648904 -0.34217584 -0.007012449 -0.58897114 0.29948065 -0.03314056 0.015212185 0.09295049 -0.22890839 -0.13104834 0.009260923 0.06249422 0.4021926 0.10368156 -0.19152965 0.44994447 0.24892633 0.13846703 -0.20642029 0.13075201 -0.37263355 0.20775987 -0.037721608 -0.29850486 -0.1275413 0.18666238 -0.31911477 -0.37577152 0.032200936 -0.27778104 0.16872567 0.25114098 0.6343863 -0.0129622985 0.60415137 -0.2024252 -0.089661986 -0.073122986 0.01969474 0.04933592 -0.34048015 0.5260291 0.23593052 0.12401277 -0.07900806 0.358966 0.11464906 0.14347269 -0.6793399 -0.22666645 0.454641 -0.11644383 -0.24599543 0.1333807 0.08820649 0.08266943 -0.46026722 0.12583204 0.2067313 0.34443495 0.16535106 0.10423728 0.4650194 -0.102543734 -0.16752678 0.23198806 -0.042824574 0.5340263 -0.26874423 0.027983576 -0.010640456 -0.5848313 -0.26807123 -0.19546653 -0.2006341 -0.2088246 -0.2690194 -0.17771293 -0.4801065 -0.10414599 0.1663405 -0.18724762 -0.16661847 0.004057411 -0.15829156 0.108364634 0.055999994 0.28070632 -0.15067495 0.048149765 -0.49579787
131 0.04893224 0.31939578 0.15745851 -0.4450018 -0.23132867 0.4191133 0.17850511 -0.07260115 -0.20565234 0.06710616 -0.3247279 0.27443725 -0.20282978 0.40329334 -0.038886093 -0.038827114 0.099370785 0.113503195 -0.22441565 0.32055524 -0.19161496 0.099406585 0.5783157 -0.32004726 -0.31853044 -0.0007655924 0.03202391 0.09658118 0.27842194 0.024603285 -0.020396952 -0.26841146 -0.28776953 -0.12946968 -0.19903299 -0.41609862 0.10168783 -0.102925435 0.040635835 -0.20153397 0.111256786 0.17332466 0.5255265 0.011645894 -0.068873964 -0.16207832 -0.08634645 0.012802425 0.092662275 0.073511615 0.037668943 0.2881272 0.05858373 0.38700378 0.09440193 0.19522843 0.10189897 -0.40502545 -0.03326978 0.094051026 -0.02943986 -0.3172444 0.17336628 0.33425772 -0.081109434 -0.40461066 0.23025659 0.2220682 -0.07371939 -0.02117932 -0.047542848 0.030706136 0.038939502 0.041095886 0.047872357 0.09795547 0.21062624 0.05077125 0.33559805 -0.06851838 -0.013230961 -0.29345143 -0.03475169 -0.08018681 -0.08080239 -0.0048087407 -0.18581545 0.006818418 -0.006022869 -0.09462991 -0.22988439 0.026831815 0.17700332 0.09656313 0.19211367 0.104325525 -0.10884349 0.034249634 -0.05858221 0.048585083
153 0.027233297 -0.034612253 0.30292344 0.12588772 0.015678162 0.32896936 -0.049529534 -0.014896496 0.13701992 0.16238403 -0.13683227 0.286825 -0.48630998 0.13312246 0.21662982 -0.42627296 -0.29757568 -0.050073624 -0.66041744 0.25926015 0.22760108 -0.19748734 0.54383045 -0.062646285 0.11395409 0.06677903 -0.35783994 -0.09052927 0.3962825 -0.017295852 0.0005354874 -0.32802 0.5221548 -0.08978636 -0.29422235 0.20490663 0.09147727 -0.22711177 0.23619746 -0.16006273 0.4657404 0.09295917 -0.01795213 -0.28884304 0.14271633 0.18530409 0.21310328 0.18655267 0.17529248 0.024485553 0.0046897996 0.39030552 0.12963386 0.5514557 0.25464365 0.58517665 0.18434294 -0.75063556 0.085700564 -0.08766877 0.10516725 0.12071832 0.34026274 0.5048297 -0.4139166 -0.00025574001 -0.025499381 0.42276004 -0.4174989 0.2035783 0.16779518 0.15241967 0.21383318 0.10717325 0.07854571 -0.60716534 0.54146254 0.041143052 0.41580525 0.17411987 -0.3323825 -0.58753014 0.36771387 -0.15360565 -0.28872764 -0.4147292 -0.4541563 -0.1855896 -0.24059367 -0.0033010647 -0.17125215 -0.20542508 0.05190763 -0.38995335 0.5154749 0.4932636 0.4207219 -0.1183131 -0.07230355 0.1831575
61 -0.19901659 0.7542438 -0.10613867 0.24995385 -0.15744865 -0.18584155 0.54750496 0.15554176 -0.09762683 -0.44196743 -0.55218077 0.07802259 -0.5032048 0.06647934 0.50075984 -0.57099557 -0.08618521 -0.02149382 -0.0051149162 0.21637277 0.56320834 -0.48949888 -0.016647372 -0.09287189 -0.010507833 0.40762275 0.42207006 -0.012570737 -0.24934639 -0.03453211 -0.25824392 0.2604661 -0.36409238 -0.30885172 -0.32007203 0.048053406 0.12045763 0.03581982 0.14557296 0.66798526 0.3589982 0.0071687014 0.03756348 0.40585172 -0.09305702 0.18086573 -0.32312694 -0.29363626 -0.112164445 -0.15476553 -0.14256541 0.23226498 0.021899743 0.44199488 0.112694435 0.11366256 -0.06271067 -0.06242548 0.010382242 0.33915386 -0.29522955 -0.2685796 -0.15070523 0.24297409 -0.24910988 0.05082845 0.32224756 -0.06677388 0.045180608 -0.013044597 0.17157795 0.31726295 -0.060797337 0.1358075 -0.050655026 -0.47145945 -0.12537682 -0.02901974 0.31981838 -0.121592894 -0.13623199 -0.034852855 0.014904045 -0.21536708 0.057376005 -0.1760979 -0.023088586 -0.41307896 -0.05048205 -0.06948062 0.059444968 -0.14772072 0.37334123 -0.0074414634 0.37600762 0.24374422 0.04842302 0.08025385 -0.34246078 -0.16160059
162 0.027567184 0.10099488 0.2665937 0.17216824 0.1183082 0.33064312 -0.055078037 0.1055791 0.028399736 0.12040955 0.0037684985 0.3519517 -0.3460095 0.12992874 0.21436888 -0.37869495 -0.5195985 -0.012236585 -0.6848249 0.14854942 0.2687465 -0.14511812 0.3806847 -0.07924139 0.095792584 0.08493322 -0.34842616 -0.05019468 0.21973553 0.055289228 -0.113687195 -0.2646475 0.34968385 -0.068993665 -0.16594072 0.19227336 0.16734262 -0.1597987 0.021779398 -0.080160156 0.26862925 0.0025030985 0.044790134 -0.23270564 0.021911858 0.16095726 0.24059168 0.21688697 0.051118318 -0.06008349 -0.05743111 0.24985738 -0.084741384 0.7447179 0.07163272 0.5427025 0.28084472 -0.6555888 0.23700784 -0.09417086 0.08913194 0.0875539 0.35286134 0.47797957 -0.38759473 0.007281062 -0.11885694 0.3763007 -0.37997177 0.3104389 0.26408795 0.07741387 0.2284709 0.11271916 0.11291368 -0.65436214 0.44486123 0.07151556 0.40996283 0.19435136 -0.24234064 -0.69267213 0.2541336 -0.106499024 -0.22002679 -0.42791405 -0.49974558 -0.067416765 -0.36710626 0.15027863 -0.25512663 -0.13672486 0.04078174 -0.38169762 0.457431 0.3663536 0.28549954 -0.049933728 -0.14352493 0.17202929
34 -0.19800614 0.028940674 -0.11235207 0.15170358 0.17640288 0.114977546 0.1978203 0.109860934 -0.19606611 -0.14867851 -0.20493889 0.17187254 -0.21465974 0.0106112985 0.11354212 -0.10196084 -0.061710056 -0.42691734 0.009685348 0.1793033 0.49960178 0.33449084 -0.25877222 0.19985901 0.23564845 0.23624289 0.070933156 -0.028511101 0.3167627 -0.18953682 -0.15129654 0.45761794 -0.02790848 -0.04527773 -0.14575201 0.26043713 0.16601826 -0.14813305 -0.19035387 0.28709996 0.4002149 0.05909146 -0.15493861 0.08462647 -0.14739023 0.11204241 0.2662898 -0.12752953 0.0057018176 0.22504151 -0.07727367 -0.16705064 -0.23718677 0.2865869 0.024539953 -0.0014755533 0.06281011 -0.19208962 0.087078966 0.41062516 -0.380311 -0.19011135 0.06563886 -0.122139364 -0.1558155 -0.116824746 -0.09914517 -0.13148952 0.2413775 0.3274968 0.24564001 0.4728183 0.11228956 -0.069237486 0.14110789 -0.36003542 0.21928161 0.026326645 -0.069823906 0.022430662 -0.55632675 0.13138753 -0.3766565 -0.17076614 -0.3114695 -0.30592063 -0.24646728 -0.29874486 0.075776815 -0.17613369 -0.17437361 -0.09970975 0.049819652 -0.30397898 0.35550055 0.02011293 0.50831306 -0.08228996 -0.44621602 -0.29491115
80 -0.13319604 0.047968738 -0.22655423 0.39118874 0.13364701 0.19530927 0.15405044 0.11494415 -0.20385623 -0.205293 0.06668911 0.16017833 -0.2700213 -0.041756768 0.2881874 -0.100044504 0.0015658955 -0.18770947 -0.20169415 0.20424485 0.17481996 0.25812924 -0.17423993 0.23859718 0.21632642 0.1022245 0.07568214 -0.10502969 0.1765697 0.03359386 -0.14697218 0.15724853 0.117801815 -0.05302164 -0.21241389 0.08820341 0.0679565 -0.15969853 0.03524856 0.07623752 0.3442246 0.13048041 0.16765445 -0.07475814 0.012417681 0.23821467 0.17589349 0.07176179 -0.015387302 0.118307665 -0.2721044 -0.15506145 -0.17148484 0.4919477 0.18652396 0.09618829 -0.041083645 -0.19350389 0.18739353 0.2735097 -0.1347684 0.054097116 0.13439275 0.1938413 -0.30266136 0.08888466 0.20281816 -0.033709817 -0.04451551 0.41314673 0.33189115 0.3585927 0.1154639 -0.28207412 0.25618345 -0.4061218 0.15189277 0.10032518 -0.03858332 0.028101617 -0.33872038 0.0089216335 -0.10970234 -0.07024944 -0.25043306 -0.18555768 -0.26230705 -0.16014454 -0.053948533 -0.1074581 -0.086882 -0.102627106 0.04989247 -0.17585936 0.13098654 -0.06905081 0.40044028 -0.22968312 -0.31150147 -0.25756544
100 0.06807829 0.2195347 0.12372691 -0.49956796 -0.26214826 0.44433725 0.36385396 -0.02434875 -0.32839927 0.02696583 -0.26904553 0.2433922 -0.2138848 0.124401584 -0.112115875 -0.11066122 0.12022645 0.41548795 -0.1449424 0.2903541 -0.3758325 0.093902424 0.2395587 -0.3645529 -0.3852005 0.06584042 -0.08208879 0.048175078 -0.038848825 -0.06079697 0.040735476 -0.31571713 -0.20521952 -0.24185911 -0.12374221 -0.33903915 -0.0028459583 0.029176747 0.06805585 -0.034834974 0.1737278 0.3189766 0.45942757 0.11051292 -0.23039688 -0.05110317 0.11157168 0.15598439 -0.08632038 -0.12707712 0.18664272 0.3686801 0.20919792 0.22998822 0.24446644 0.26339385 0.26062468 -0.5134258 -0.15445381 0.14540696 0.30493852 -0.03132778 0.24534465 0.532373 -0.12329781 -0.4451466 0.30810708 -0.07496798 -1.9435618e-05 0.029289745 -0.022364851 0.021663567 -0.049873002 0.08209552 -0.17015187 -0.062026534 0.20131664 -0.0349497 0.50481695 -0.10200047 -0.07241608 -0.23752044 -0.07964689 0.16610911 0.121934414 0.04131505 -0.15851375 -0.050353993 0.22452234 0.2065168 -0.07487548 -0.0038238058 0.12005612 0.07041908 0.06158433 0.3539783 -0.07273436 0.18356416 0.29698312 -0.25540453
2 -0.2510362 0.23302123 0.25940943 -0.1815043 -0.26796404 0.05950332 0.37889093 -0.14381048 -0.19028781 0.24877194 -0.21651018 0.2866357 -0.6371101 0.24518004 0.040338464 0.10243428 0.14299466 0.21647081 -0.2351943 0.28420317 -0.470569 0.21195151 0.113499545 -0.40666246 -0.1271182 0.2024523 0.04589975 -0.20264381 -0.0068071024 -0.15485558 0.05450693 -0.23124312 0.022604449 -0.21613851 0.024374707 -0.15129642 -0.27135685 -0.026088309 -0.14914888 -0.15563026 0.049383096 0.5096798 0.36036482 0.059950173 -0.033646185 -0.090580106 -0.18472217 -0.10001139 -0.034898743 -0.06782614 0.51804644 0.33857813 0.2714094 0.20802777 0.21370041 0.26778573 0.18323265 -0.64753926 -0.31107345 -0.027226798 0.38707578 0.028014153 0.07037355 0.3365031 0.042706534 -0.21356136 0.1722011 0.04783586 -0.04286079 -0.094197154 -0.1063641 0.15130864 -0.00052839296 -0.19538864 -0.03095251 0.18052833 0.20302269 -0.22654325 0.34435028 -0.23056887 0.006752867 -0.30821222 -0.11456543 -0.017878063 0.17429537 -0.030142618 -0.41839665 0.29338568 -0.13651371 0.25319526 -0.04711168 -0.033026803 -0.05219051 -0.07560903 0.3475383 0.088757105 0.09877692 0.24869278 0.16486885 -0.15998034
57 -0.120877616 0.32850176 -0.13713484 0.29451337 0.29684862 -0.04803945 0.08763274 0.0013350314 -0.26540458 -0.33883587 -0.042195827 0.07513103 -0.260838 0.024522692 0.33260033 -0.4348576 -0.0051143644 -0.050231267 0.10602668 -0.015374579 0.30137408 -0.09224007 -0.17709836 -0.0025999667 0.07337482 0.101687804 0.30790925 0.07289589 0.059265677 0.015367894 -0.1277714 0.3538225 -0.18876769 -0.2635883 -0.2804088 0.25948477 0.12391587 -0.048253242 -0.31401822 0.21913359 0.66965425 0.13748105 0.055565435 0.17248654 -0.0703939 0.23873518 0.26407427 0.04410924 -0.12373009 0.11339906 -0.2747818 -0.19150479 -0.18527882 0.39040008 0.2865619 0.04384373 -0.012452251 -0.1649862 0.27025327 0.31755283 -0.07405617 -0.16162474 -0.019273983 0.1720882 -0.30395317 0.03810359 0.17987879 -0.17433344 0.054947793 0.2956129 0.24937111 0.39250788 0.41137022 0.034499254 0.1606305 -0.5090312 -0.11262531 0.094285354 0.08919572 -0.2654361 -0.3991631 -0.13220017 -0.14588979 -0.07046808 0.049543865 -0.101389326 -0.29676744 -0.3741091 0.106675975 -0.20106463 0.002420006 -0.11387833 0.20844409 -0.28142607 0.25669172 0.04864118 0.4356128 -0.14109461 -0.37943354 -0.3772605
125 0.10821766 0.15798937 -0.22847003 0.28704745 0.0050978246 0.31574076 0.31756124 0.16443086 0.0472291 0.13936616 0.0093297595 0.37404472 -0.36053172 -0.29581743 0.047526527 -0.116007656 -0.20985651 -0.120395556 -0.34220108 0.3038766 -0.068188354 0.14871469 -0.020105371 -0.06748452 -0.1606336 -0.085428774 -0.21490772 -0.051548317 0.38869226 0.15618823 -0.26438195 -0.18392411 -0.04750403 -0.10628963 -0.21583052 -0.12787057 0.26566792 -0.18813597 -0.10653628 -0.03091706 0.059318736 0.19277766 0.23519942 0.0043378943 0.012025796 0.12574609 0.09888127 0.052962247 0.049384966 0.17603496 0.005531943 0.0748078 -0.17838462 0.37703097 -0.029258529 0.0727148 0.16064511 -0.010404118 0.095676735 0.08609759 0.06623231 0.1795668 0.23322836 0.30556262 -0.33167553 -0.06810088 0.14372702 0.01563403 -0.39167732 0.09188645 0.085576534 0.17981912 0.098174095 -0.0030598994 0.1624123 -0.4140991 0.1636825 0.34573525 0.20271671 -0.19166425 -0.06704369 0.0297023 0.08700217 -0.0102359755 -0.051485952 -0.36184713 -0.32376346 0.21919319 -0.13734849 -0.05606557 -0.040233854 -0.03973733 0.18186806 -0.20746312 0.47607368 0.22979075 0.3846271 0.010560248 -0.1977303 -0.082884915
118 0.19016176 0.3939033 0.06978196 -0.25973332 -0.10297317 0.56083745 0.29202798 0.016045302 -0.22432925 -0.026401186 -0.4395313 0.5123027 -0.3148069 0.16884533 -0.19683199 0.08706237 0.023672897 0.13120493 -0.16099027 0.4255093 -0.20983422 0.07228841 0.4110592 -0.22563934 -0.392034 0.030645939 -0.028925939 0.121017456 0.060162246 0.05784902 0.14149375 -0.16383748 -0.2568789 -0.16000152 -0.25017792 -0.50259984 0.08695633 -0.010898893 -0.105908886 -0.15873894 0.16310546 0.24331823 0.47285742 0.18512717 0.013054716 0.06301631 -0.09405483 -0.0485192 0.10065275 0.17353481 0.08535609 0.24046896 0.117047094 0.5686391 0.03307012 0.09167896 0.18533315 -0.17777681 0.11725434 0.21176903 0.032038156 0.007429382 0.060094573 0.31618953 -0.2860977 -0.4160125 0.3673826 0.073470026 -0.1747 -0.0403325 0.0045043435 -0.07169151 -0.079296984 -0.021700878 0.030481283 0.016166668 0.14337012 -0.042431083 0.10017314 -0.16445532 -0.06426141 -0.30864483 -0.16976143 0.16954015 0.07157043 0.05029748 -0.087610535 -0.07526255 0.047571972 -0.19446507 -0.20895839 0.12144952 0.1861065 -0.0166285 0.11125648 0.12564442 -0.17133377 0.11678676 -0.060183696 -0.115538254
90 -0.20175102 0.7680382 0.10355387 0.11471057 -0.08467108 0.030524135 0.20439745 0.054057047 -0.13690497 -0.3264603 -0.23724061 -0.4061837 -0.14721237 0.024635866 0.45631933 -0.38070878 -0.23285303 -0.048015404 0.044279918 0.36744133 0.3844936 -0.6929102 -0.08807656 0.0066668093 0.055555873 0.019446867 0.26650172 0.016627355 -0.05684341 0.08033901 -0.14646712 0.30875874 -0.25539508 -0.34675378 -0.24815844 0.04071007 0.41205522 0.14139377 -0.03454624 0.3325342 0.43186367 0.025294844 0.061302785 0.120762564 -0.29181322 0.3017027 -0.12113793 -0.12356375 0.032020457 0.0043565733 -0.07167606 -0.044225212 0.08973028 0.4052672 0.20029859 0.31143415 0.051275387 -0.16363138 -0.09699567 0.22408088 -0.053538434 -0.13183247 -0.124963835 0.24909146 -0.23913199 0.15419854 0.3319822 -0.4076828 0.011075967 -0.1705532 0.26680118 0.4645783 0.13371077 -0.051966555 0.0024123522 -0.5169852 -0.2181004 -0.0035033862 0.14330095 -0.10245159 -0.36775982 -0.1796161 -0.21967927 -0.036392502 0.21674317 0.057847228 -0.030718101 -0.17311315 0.1973986 -0.15149435 -0.20816445 -0.11640682 0.057772044 -0.16099118 0.27639046 0.31051043 0.24414812 0.028625507 -0.6327227 -0.43905193
51 0.16351724 0.23835202 0.026019815 -0.4856993 -0.49877092 0.36119053 0.14891016 -0.15233515 -0.20876244 0.10382065 -0.08476612 0.32881406 -0.14798822 0.34649044 -0.038838252 -0.2609345 0.09072086 0.230521 -0.30046168 0.43929514 -0.17868398 0.07720295 0.30729786 -0.30154195 -0.37241948 0.15979172 0.08321785 0.07488525 0.13842776 -0.1270394 0.0290322 -0.18679763 -0.16936785 -0.2157063 -0.11852703 -0.28894517 0.048826195 -0.07797059 0.03878584 0.045933478 -0.0019123016 0.22339581 0.59650165 -0.008818966 -0.09869913 -0.1373899 0.12747754 0.097158864 0.13873261 0.18494768 0.076785564 0.499189 0.15518722 0.33588684 0.09987166 0.53748614 0.19647722 -0.56316745 -0.17753774 0.054448865 0.11847997 -0.11631171 0.45519945 0.28597113 -0.18381095 -0.25664616 0.25203922 0.22012086 -0.089098535 0.030160537 -0.2422263 0.24173011 0.06131186 0.011943393 -0.23131858 0.0008899884 0.25339752 -0.059959065 0.4329689 0.105708845 -0.17388621 -0.28840584 0.184793 -0.13491112 0.05238389 -0.041062955 -0.14737113 0.0886326 0.07485374 -0.09434493 0.035043303 0.19233619 -0.032202303 0.009499579 0.15512106 0.132009 -0.1421732 0.1983192 -0.061685238 -0.19703121
163 0.14708571 -0.117169924 0.26853606 0.06978814 -0.06298617 0.41139713 0.047231972 -0.08959639 0.075053066 0.44438595 -0.18421431 0.324043 -0.1898492 0.21980917 -0.042070158 -0.26816827 -0.37363562 0.03417168 -0.65593493 0.06702797 0.1476751 -0.33737704 0.5140208 -0.1971706 -0.0665224 0.2529897 -0.2633779 -0.07615858 0.4314962 -0.23358245 -0.11901846 -0.36330956 0.5170439 0.10538541 -0.45091274 0.2623738 -0.0373548 -0.31488356 0.12606452 -0.16018501 0.50613993 0.09953106 0.31145787 -0.18751253 -0.021240318 0.33822054 0.17792349 0.23937587 0.27908885 -0.1467364 0.18862346 0.30794576 0.17420068 0.79057163 0.20096643 0.5125632 0.37250635 -0.6885811 -0.11204223 0.122890614 0.092453375 0.12988038 0.33333543 0.6216185 -0.3759012 -0.18899299 -0.06702361 0.40767908 -0.049388617 0.21034952 0.015285826 0.18735953 0.4586444 0.14612088 -0.046997853 -0.6109323 0.66411954 0.10287333 0.363688 0.14855246 -0.33716053 -0.59822416 0.41084927 -0.16100805 -0.19392507 -0.45787486 -0.34087774 -0.20874624 -0.14743376 -0.10814744 -0.28391534 -0.52692205 0.030668851 -0.27450484 0.51295286 0.46819767 0.23001371 -0.17084691 -0.042091254 -0.061127413
